[[[-0.6345267014771394, -0.004223914174803278, 0.5170229632932457, -0.08111557792979407, 0.48558111292203243, -0.9896550400637905, -0.3820724332691774, 0.5368567439576082, 0.9331412151510039, -0.2225157201503669, 0.7662354242004543, 0.4596468679004746, -0.7249889065395256, 0.4059087866541389, 0.5724526736061832, -0.08834547279257698, 0.6531789723910706, 0.31499494302822373, -0.25710356244049604, -0.4196063815745956, 0.7087421098564746, 0.7041502726255946, -0.09626405497285062, -0.00825432211153343, 0.5845413184148847, -0.19783133329581548, -0.9800371612020806, 0.1383835304729879, -0.9235132974007385, -0.676522169978583, -0.015228348731995744, 0.9112281028035669, -0.5001670218518854, -0.8566218703931854, -0.5633148959028298, -0.35139521930010886, 0.6162112121268932, -0.5911694909848253, -0.3250005874767916, 0.5387587157555405, -0.7361065565320131, 0.32893751852434416, 0.867077719336621, 0.5067646628351226, -0.6866117878188782, 0.8340571279353968, -0.9278550941569903, 0.9050600515222333, -0.08600918439543115, 0.07312553532136734, -0.9264896336596513, 0.6254141158664066, -0.42867980711707676, -0.7620155240939681, -0.4189032971749329, -0.8661503304118285, -0.7000557473751463, -0.21493015133259163, 0.47752072503670817, -0.9352275007827362, -0.5705655251530299, 0.35906801367521624, 0.6899285376342414, -0.03868506490973145, -0.9335503912609515, 0.27282357108854294, -0.16466124692461137, 0.9970813825287927, 0.6697710414466083, -0.1944946093714115, 0.5721265097780046, -0.18368299824912193, 0.6949900028429887, 0.9477945426763927, 0.719204702832771, 0.8370329966554773, -0.8914423090950234, -0.27116125846185124, -0.08721354736403297, -0.7221056471780185, -0.1663484997557001, -0.584680797398025, 0.14236163490355813, -0.3381833808547394, -0.21817717659424773, 0.42650758615140916, -0.9191625980547764, -0.43246424006711903, -0.8789887400471834, -0.6545041240405345, 0.5275250737645847, -0.20799964060428122, 0.3291708732617864, -0.37156906749976093, -0.9889802842933764, -0.6992907797758485, 0.01836975959091336, 0.2626091840901814, -0.20417696003541574, 0.18185021136466517, -0.15946652419545426, -0.7943323157761049, -0.9832905757123362, 0.846002422461485, 0.5189580038067021, 0.7599161366071285, -0.7515907107189885, 0.03313750060868048, -0.44688435414405236, -0.6483737480010174, -0.6125123538942585, 0.5788053757379059, 0.5223639539724543, 0.5010528503785137, -0.34557370388343633, -0.22513147544941847, 0.8322604125691586, 0.9965046058530658, -0.6741418998947792, 0.5733823386861614, 0.634899438443941, 0.5065142969103376, 0.6494551118312097, -0.7276781288647229, 0.2026136561579135, 0.38078925140643416, -0.3534779677152775, -0.5960242543030729, -0.40192297699115964, 0.9496275636481137, -0.345227016512724, 0.2844965809862108, -0.45709319172000185, -0.6299168756891791, 0.5685618989955854, -0.7355442758917443, -0.6730722904505619, -0.6601306010252281, -0.5094678290644146, -0.7392335573420772, -0.16255479011876517, 0.8599020773531698, -0.20223950423473425, -0.15460944523004017, 0.6871917689425406, 0.08869036089782201, -0.23100301709699322, 0.45865081593815415, 0.9856385979249802, -0.22806416486502012, -0.038399124072584945, 0.8391294575106765, -0.7517584968971647, -0.6693337815892348, -0.23402646332313326, 0.5425805156001291, 0.8553697650108862, -0.5527185357729709, -0.5513693947434084, 0.23359673512651158, 0.2285956944356098, 0.3892103311276105, 0.2405954917968096, 0.3195451913341616, -0.7114688914168612, -0.1750848700322567, -0.007840491645516146, 0.4027341002396867, 0.07140720908335307, 0.13834707638559585, -0.8716012436161198, -0.17741011042159838, -0.3026199868753803, -0.9882104524834221, 0.09869521716627294, 0.5846569001510757, 0.37714095097071576, -0.43651696779657456, 0.6451957885449047, 0.9596203530394862, 0.7239265412802596, 0.20531386579880873, -0.9846205185869565, -0.41115083412033204, 0.6433753158795379, -0.46423101523384913, 0.604972851502211, -0.31027195147752806, -0.9263724213534137, 0.4745058303398271, 0.13163681848446473, -0.3479371299920566], [-0.9455376458161882, -0.029406679233361377, -0.38697117661750324, -0.9427237886174871, 0.8402843012062762, -0.15973291842908854, -0.8304059980714602, -0.2125937981089745, -0.48911560670068277, 0.8857960375792178, 0.9145192226958974, -0.842089398759736, -0.08542808381340605, -0.7941846516324529, 0.6305309650716049, 0.9097917486947025, -0.9542635828564541, -0.5382272097963259, -0.6820965680577837, 0.12018968758501725, -0.64239202328756, -0.8884953852350514, 0.5235992510850833, 0.9166056956377422, 0.3606406146284302, -0.8991283036239204, -0.5755855368314464, 0.48460726215031946, 0.7801533057167831, 0.30676178566877943, -0.7842707546245322, -0.27339859604232264, -0.22868149708280394, 0.450414824263762, -0.011255843614542682, -0.9290317996605999, -0.30289133799830226, 0.44578219583183176, 0.5057692882521194, 0.3806194807807508, -0.4928204552277209, 0.8123006682341742, -0.15729720321316965, 0.3623634501921056, 0.6447827372329882, 0.9653179925061892, -0.05131168191688218, 0.44920010520495124, 0.9798673965929374, -0.7755986370110695, 0.2394783355192318, 0.2329521658125695, 0.9339805444552152, 0.15691652499856046, 0.5193205786167234, 0.03618075738633886, -0.6782266378938588, -0.6673749829065081, 0.87159675355889, 0.38967672500242534, -0.806056645200746, -0.1374541782320755, 0.8481410499248148, 0.9362256204982655, -0.20156295235070543, 0.41729724169422555, -0.9782723223176184, -0.31248630502013874, -0.9809297829187822, 0.8594465458572147, -0.6923824216164429, 0.1261775803221652, -0.11259763571916581, -0.4032429054362683, 0.060797776463676456, 0.7871700738282743, 0.08676547827706416, 0.758626664549044, 0.46895092655986637, 0.6049328367823728, 0.5179809482410334, 0.8742713299978506, -0.06286770694396071, -0.36427198361138236, 0.3664136060509582, 0.9032607733025573, 0.5153389270276107, -0.04661467506737793, 0.10739087710057427, 0.819429349469476, -0.6992337856373345, 0.3537838835782059, 0.35303135907835204, 0.05984309016373612, 0.4220165589844225, 0.8151985597025826, -0.5530464394753065, 0.08394536466940683, 0.6532490581120753, 0.14604292164638366, -0.6712277657315344, 0.5769881917358597, -0.9126815372483736, -0.7503013644443484, 0.6022325856332451, 0.18729169284442082, 0.23150103123522414, -0.44039966315404944, -0.5903582416998872, -0.9425220318357668, 0.25639007807361747, 0.7548457265789548, -0.11239312801253876, 0.1530949022763768, 0.9872872657364762, 0.8759588133155911, -0.32632887551652634, -0.3828678063657691, -0.07331509594333108, 0.10091153956049337, 0.37348215898659687, 0.45874201575399454, -0.8106085878423774, 0.04849051887301603, -0.4615790187216815, 0.28034099166001725, -0.31742339243207907, -0.9292043151750444, 0.3604016526998257, 0.14248785005754327, 0.39582158674484313, -0.03587376834209355, -0.04573986626184112, 0.49712245227387797, 0.8217020241197481, 0.1560387966701391, -0.35429631115292715, 0.4985685261310018, -0.312272944588295, -0.02783510778054543, -0.7104161509981306, -0.2605790446143883, -0.9221150769811253, -0.37073433397851674, 0.8671869627856663, 0.44198169638351614, 0.6379846828363462, 0.6921066727984277, -0.7623003288335162, 0.950042670776768, 0.7976433522472277, 0.3805378737559193, 0.023796816446249647, -0.41367418124043964, 0.40003675059907473, -0.06515520183511647, 0.9645338929330585, 0.17772656179252944, -0.8067409308806524, -0.12381691919512705, -0.40248280447287965, 0.17904770938269676, -0.5845545333879609, -0.9620249842986388, 0.7123117140168482, 0.3194651352245903, 0.855117083701356, -0.37046502654186875, -0.48404519179733607, 0.9466760430106766, -0.6252665079896893, -0.42553010066184394, -0.07146462438859036, -0.7965959175172381, -0.6265315713908219, 0.19851767983892832, 0.24733974240263779, 0.008253902224150789, 0.4498494361929113, 0.3347894341693691, 0.8027628101495219, 0.7702174938260402, -0.31592089137452306, -0.42755727010016864, -0.7911429677233099, 0.1049585646437492, -0.5083809488624198, -0.11734000449932269, -0.8631933273297869, 0.3045406354547031, -0.23197304578585465, -0.013519368642342489], [0.9296806257318204, 0.4100419607831931, 0.6596983871634887, -0.04664850935034348, 0.4039817745088996, -0.8856795222538134, 0.4486747963153499, -0.5131463062308734, -0.957151953553607, -0.10963295431614517, -0.31221013126271724, -0.8480926189454348, 0.4935677428137244, -0.4824918001634426, -0.29821878319718986, 0.3021366923502493, 0.12759070125230365, 0.20030423189073399, 0.38767311014564654, -0.42813626098270063, 0.4189664072454684, -0.34289711660373223, -0.558179464698539, -0.2169757416162572, 0.5040200866264679, 0.44624285086839266, -0.5992172388335104, 0.3668503193359851, -0.760410432746299, 0.849823594515819, -0.910434399441959, -0.8484260615592838, 0.37795211683131136, -0.47162183087804155, 0.19092597227640895, -0.9621491344573945, 0.8619560587492208, -0.8594867578340735, -0.3708794758511562, 0.49329849316204233, -0.540154937459669, 0.5555346826673013, -0.32427534450073847, -0.046677660567163715, 0.26093228115948097, -0.6504945023838438, 0.026935594275578456, -0.28097839856709794, 0.09582785652517978, 0.17526812534724412, -0.308369617246824, 0.04601542190331731, 0.32315972967939266, -0.7457992934353619, 0.681090997330279, 0.002297849125281415, -0.2517635761928241, 0.16758393589040455, 0.44730069109862036, 0.9847680938273369, 0.0702425623376044, 0.4284365036681719, 0.8780685334330036, 0.36274588254565643, -0.6690896240175239, 0.27996254702305046, 0.7723281499963359, 0.8081606230395173, -0.11267906290783847, -0.24692563883767615, -0.31745722850358105, -0.36443395888604924, 0.5934208059071351, -0.6310500552877276, 0.3086176374642262, 0.5140427510593419, -0.4605158463066814, 0.8289335338399728, 0.7651358821813632, 0.864657658418533, 0.36352523267550274, -0.07503014470230185, -0.4847295765029085, -0.4049404648067503, -0.12795584056634257, -0.42200178864473714, -0.04874931801075899, -0.9813745634105031, 0.47913437384691226, -0.6305919417568735, -0.8139741204091733, -0.683690059805619, 0.26170647039906414, -0.3854835697987895, -0.5639199274248181, 0.3304958842323371, 0.15785968914812698, -0.1317693671508886, 0.38379807547944744, 0.64931408616807, -0.9549740112177156, 0.060433863139862876, 0.9649345874493476, -0.12787014487447612, -0.9953448037063293, 0.012761758131731415, -0.5799341343986326, 0.5289095755248354, -0.6185814037616388, -0.6644563731478916, 0.6158643656545852, 0.15390561403474812, 0.7355693874363234, -0.3306839013724805, 0.6686749826044751, 0.7147581894744892, -0.3677938074433422, -0.9631054579143978, 0.16590360903546575, -0.3421587950978373, 0.19278706759439612, 0.5032243990864802, 0.6746038456017085, 0.9997157132798253, 0.8240500137851743, -0.37538072481161566, 0.8172610842331074, -0.3496531890481045, 0.388026463583383, -0.36074376444178813, -0.4911936944418154, -0.004550572299863553, -0.5392018373408412, -0.9597393575440243, 0.3747789724988102, -0.9905681363174006, -0.6381802433215011, 0.4949348269634388, 0.5553197714048215, 0.01733002844803755, 0.4090589515183989, 0.7131093201120107, 0.07692138410387095, 0.9639535595610778, 0.8475393566503853, -0.374500175121836, 0.5445744235437953, 0.2754178999294703, -0.272962997115624, -0.8640329536027018, -0.3804035269035191, 0.19424879327828637, 0.45838737095788673, 0.511542835927576, -0.7593054566465227, 0.4221171842370761, -0.5804673396617177, -0.28907323243503935, 0.6115480515209095, -0.8319977287726945, -0.42619939776034, -0.5589632453196192, 0.45387240774283066, -0.5677084015423632, -0.09499424418750224, 0.10768630325512585, -0.5367572007934664, -0.9507179129361922, -0.8821346793397651, -0.8759515672271705, -0.6689874381511955, -0.4917624878503646, -0.11853634822505099, -0.30826434474104447, 0.42030181543274003, -0.5954858162484322, 0.20236969844745567, -0.0968204268482189, 0.040748757837212546, 0.09384568660224657, 0.21598823445644477, -0.9588319110129959, 0.05298297881806624, 0.5244655056385441, 0.7616065257555913, -0.08170650822878223, -0.3485326916818021, 0.407484026122638, 0.4114936421095421, 0.2884839935356369, 0.07922918903359655, 0.7807252354116634], [-0.5738213683245477, -0.8476744974797383, -0.10122364362799785, -0.22399053817350012, -0.5146079921612279, 0.6552888832303665, -0.9121960616456304, -0.5749012233235671, -0.828290343260826, -0.9449415856533327, -0.3093630967906278, -0.05938521183395107, 0.16596494344205204, -0.7833048569893841, -0.9585675801316615, -0.4802285625037075, -0.9150279158903631, -0.5955107641247426, -0.2290215741417816, -0.39725912010124853, -0.27107875041422846, -0.44732391116167713, 0.7530664192208598, 0.6194369237477941, -0.5303449049657434, 0.8986005033533135, -0.6540321700290643, 0.4260305700421383, -0.3709150292928183, -0.1336741218287536, 0.4453862340774539, 0.22540597326170642, 0.7303525671484612, 0.0855776525868146, 0.8253066813669385, -0.8398983805143279, 0.640144611313398, 0.0865652820766365, 0.5726085794550493, -0.22469486881226985, 0.1445145261055225, -0.8186073252269597, 0.6780428630862336, -0.7504033632936609, -0.4845775133000545, 0.715562059513541, -0.6716628845085812, 0.7845081747227742, -0.1621620736738285, 0.5277903351438862, -0.5773584796880924, -0.5844818600010784, -0.9621469408959582, 0.056550372666434257, -0.9772495141619253, 0.43958692716736136, 0.6739270761737668, 0.5284721217888217, 0.5492926320898157, 0.32524320694146547, 0.34289914049262293, -0.4449065920980755, -0.8853505536354347, 0.6324070440263951, 0.606352511867629, -0.6368062986854404, -0.39472938338572816, 0.26415800557283964, 0.4684978052012221, 0.7121777789662749, -0.37384362067133936, 0.8581855915674959, -0.45600095725081347, 0.6467018588992777, -0.06878142523419362, 0.8232280495712188, 0.8010226470696042, 0.41161822304268547, 0.14781559319195514, -0.6318154292896503, 0.4772414868539576, 0.16818662289077047, 0.3893667280247015, -0.9641058111862091, -0.7319121063284957, -0.9062478378146992, -0.2745597632916035, -0.33541467073565, -0.1499556822915662, -0.9611335962387451, 0.21481899011885086, 0.49682089918072614, -0.9920342306125718, 0.9018901014000134, -0.10020126834783505, 0.19473458813009237, -0.8866207635027272, 0.6817385811981771, -0.6414513731503413, 0.9346610675946347, 0.17870591948482661, 0.6127135559864194, 0.6508938814539607, 0.916119533476407, 0.821590304174719, 0.8791009210977392, 0.879852527423487, -0.2461182552565948, 0.65620651980666, -0.1866214359470355, -0.4351497848493966, 0.3727322630735439, 0.7595398095905277, 0.7585424845298285, -0.8388443616460843, 0.5892787519312734, 0.6431315592225375, -0.7462794496949603, 0.17918498076531741, 0.8365577052965374, -0.17184098565357142, -0.8787413802381365, -0.5174042327941797, 0.38002070480984607, -0.4158946316654206, -0.1946434744630805, 0.6550336400860839, -0.3079481247570224, -0.5855947974630142, -0.37317419126128293, -0.48243397220266293, -0.7173706921711205, -0.4153734355083658, -0.4085540398880445, -0.7946318611745038, -0.13311233949891488, 0.6150836727972222, 0.5947744878357097, -0.8059027513799828, -0.6426299322748492, 0.8494871139020506, 0.9380674713453612, 0.8727073815976283, -0.628426283999376, 0.8184402148765637, 0.831291745641046, 0.8137588966761873, 0.6857407444807841, 0.3936267082243967, -0.04054603078794616, 0.010284713159331105, -0.16901740433112433, 0.9008239647202199, 0.021078291641742908, 0.6628850368295585, 0.09421468716193693, 0.31563506966155885, 0.8308838346409895, 0.4290077484766923, -0.9598856385627412, 0.5274799792747078, -0.6377280466696109, 0.6457535267190875, -0.1915890710174939, 0.8808616819134256, 0.6667741267883394, 0.6453922220992365, 0.4063593899529405, -0.8240637609440533, -0.35514372115416615, -0.8774313895003416, -0.8115816654518624, -0.8148462018394413, -0.04350848110404404, 0.16016760167814925, 0.6174587347767704, 0.29500521634549215, 0.2530637376468321, -0.9161259045319057, 0.1731659965000205, -0.8009326692476038, -0.9295617333489468, -0.17167843683653938, 0.7668693587877153, -0.9750541868038822, 0.09045052991449731, -0.7996379921930152, 0.8493710007429649, -0.11988565267541818, -0.2794847284060187, 0.32366307852520415, 0.9293026897239018], [-0.06328105008332119, 0.35448870455870485, 0.7703444504137891, 0.3265366658412745, -0.3281619694501172, 0.10279269882460684, -0.7776893974096217, 0.5283155664450572, 0.8319529987890089, 0.5991712734593857, -0.6931466498492853, -0.9689003744033879, 0.41626039730066156, 0.547404878208505, 0.0029715701899870606, -0.062028121095652144, 0.6408170331755283, -0.923967594385545, -0.7404786386397095, 0.8471827102505278, 0.6768153932267169, 0.845217774109883, 0.57019925980618, -0.5497332491359324, 0.5206856616416469, -0.05004839093872171, -0.21615755436561268, 0.8135276769554696, 0.9841475079540198, -0.782233172967288, -0.8989087182819706, -0.4301921409588665, 0.4053656913283661, -0.774973105035518, -0.5746887493048287, 0.1426793533503825, 0.7269490346560978, -0.27086875570236923, 0.03785513035728405, 0.5280361971715155, 0.809616510771282, 0.6603387611988201, -0.07090813816288177, -0.6925533035953271, -0.6685255473926277, -0.7654022534535467, -0.9454153644089207, 0.8165276642432164, -0.209254524246687, -0.6613046147329675, 0.23326452647521334, 0.6319274058281503, 0.8721579005525071, 0.5206304277187215, 0.0935614401778131, -0.7988066015967359, 0.46460207686530297, 0.40288735976368817, 0.2730827721263982, -0.8135518279880085, 0.5720709373170838, 0.21007564950508284, -0.40913241800325384, 0.5247205995650925, -0.9478584539021506, -0.6369599880188432, 0.5876502131473518, 0.17158238709491513, 0.5011853108526834, 0.7285752511476236, -0.11966799899409586, 0.6643705791634202, 0.8783877677438823, -0.006232561230322231, -0.28736789779650884, -0.5186366683990606, -0.9959835898677207, 0.1149394024951651, -0.5502073329251203, -0.03563208746256907, -0.8827295532616002, 0.8150651218672216, 0.4979024329168551, 0.5424671797798661, -0.15283675490644, -0.4195143704146511, -0.42636175334102266, -0.4302902101494699, 0.73902160917657, -0.5814882371593499, -0.7400626529711907, -0.9803226835619805, -0.3418212439534787, 0.7968075915568831, 0.9192912053003297, 0.30804719968107386, 0.5945722755321359, -0.7218907788590592, -0.4700746905702975, -0.4844159943924795, 0.9746002516630246, -0.6449776298663954, 0.6611667130636552, 0.0637778433006626, -0.026752718300659284, -0.9127599985810795, 0.3053265847695281, 0.08359314241227156, -0.7169273692689138, 0.6351001820136364, 0.13848890615043707, -0.890287295657106, -0.9524935249911239, -0.2895333653976939, 0.6258794180757434, 0.06160181991046665, -0.10202745879805608, 0.6942859976524804, 0.6346566053831031, -0.9960333200560973, 0.9417379908637193, 0.6109185985247332, -0.7588396857228807, -0.30658575457379045, 0.9368077834200903, 0.4925337360044253, 0.9115621956905189, -0.7880908744619275, -0.9752625025349555, 0.6473165422389149, 0.970898031397921, 0.3308459822495846, -0.8111789882916651, 0.09479250867652533, 0.09514166175194583, -0.20725888634551892, 0.8858409719425975, 0.7611484603490111, 0.8922536497773188, -0.10225105965064585, -0.8949522986464826, -0.21731225640457463, -0.9947233927946837, -0.6292335386347219, 0.18075654118918005, -0.8923602653887799, 0.06985679083537666, 0.8859047056969416, -0.9865979913206508, -0.5040895000873389, 0.3539491496161664, 0.8535558358966433, -0.16278428455867333, -0.4204075468125532, 0.7489470105663241, -0.28731505730896956, 0.9493567935178582, 0.1458828068509035, -0.22858930949313394, -0.035531328510080895, 0.8035340830107431, 0.26761501443072233, -0.3275927762179687, -0.5537256387934493, -0.5093213112373816, -0.7631232045284366, -0.8611058842203276, 0.9077602297578602, -0.3990546406239568, -0.11240630325774448, 0.1911126104741332, 0.4073482645058324, -0.9402188177854254, 0.9337531297394903, 0.3364412556014029, -0.5782472378843031, 0.0031004771282856503, 0.03783279905011949, -0.7924612647621923, -0.994880401617144, 0.10138624928757478, 0.6959980646441832, 0.7388233538907814, -0.1701139491356456, 0.3649676981848653, 0.7507949147566104, 0.7693844981612339, 0.02209911875736159, -0.6147367216299793, -0.5987522638509424, -0.1473554915590627, -0.6270828999496982], [0.6774154172105253, 0.970251564786023, 0.8190507121499355, 0.11119336945125213, -0.671551207795712, -0.7064374715806947, -0.9242067385011112, 0.43299644049241515, -0.6097834872625683, -0.7137574977568975, -0.0554955502563077, -0.1561128277426458, -0.6867517216581989, 0.29809673882834553, 0.13563561202871544, 0.18868749911670113, -0.34221556867694214, -0.5271995220321855, 0.7802641295836927, 0.9712514248659758, 0.6304446959290444, -0.33735044342415166, 0.9930689411624405, -0.5595878410578119, -0.5615500063657937, -0.309021833487616, -0.39175740922561886, -0.32029266785794674, 0.6217706930214459, 0.058918485143087285, -0.8423143855694817, 0.4095170360933855, -0.11317871532500634, 0.8988086552636616, 0.2608245127784816, -0.3139248874510514, -0.2761657369707047, -0.23472723194373257, 0.993242113587248, -0.5007502151314336, -0.1452947686007684, 0.5911576403815686, -0.6082937940116466, -0.1001831874808552, 0.5259515460248168, 0.2828870710644025, -0.5778681844525724, 0.4623330832266803, 0.9966007262483685, -0.3599304109070811, 0.07782278708309764, 0.7287647930937629, 0.29108628990313345, 0.1592413628667071, 0.030905957131406758, 0.552891975852952, -0.7072190438366777, 0.023699802509967505, 0.7957078467532768, 0.8842881166021059, -0.7746461700601059, 0.4954504876878172, -0.683744536258843, -0.28043013971831243, 0.9597724171212676, -0.6315985402087714, -0.21507102939150968, 0.27297673409899303, -0.47010034786787, 0.4269278736981319, 0.7869216069926734, -0.25273454629961356, -0.6185645041083163, -0.32297569795757797, 0.5159567614133538, -0.6309793576944336, -0.3962850963649267, -0.3416358918654807, -0.14743716189653777, -0.9586981130003212, -0.9010885712024104, 0.2878499891546993, 0.056630380355751075, -0.14456762440731485, 0.1941752772330898, -0.3169099052728164, 0.2876509376217222, 0.332812598329268, 0.9170672515515641, -0.5187023445443182, -0.5139115991887784, -0.9332672979014147, -0.9470718225861388, 0.889451789947536, -0.7149437660946176, 0.9054269592001494, 0.34974218294508397, 0.5978895696469053, -0.3802396546530047, -0.26614164186580136, 0.9826824090805437, 0.8106198700807283, -0.7538036443577256, -0.4007060513948735, 0.45541829306568293, -0.934130593816981, -0.7654003903565336, -0.1505860454988297, -0.5626284951832206, -0.3913045463078457, 0.6008976730810509, 0.30425009468806796, 0.26529351408787094, 0.19674830553369693, 0.6841107809997495, -0.09463257133285796, -0.872397964323935, -0.6576365726656477, -0.03151063136696686, -0.4643313061867622, 0.3719580108492595, 0.5518252311905301, 0.08421241456937545, -0.21278148855959933, 0.5130920139334603, 0.8025874817254746, -0.12058171237710225, -0.13979967665038817, 0.8870031531982034, -0.7225678413615892, -0.9556042983085848, -0.1571574264531388, 0.5134299633104606, -0.7551051311973733, 0.09123258674658152, 0.6744524021553342, -0.5697268074116248, 0.2066933750682085, -0.20306039188696268, -0.2199042047215647, 0.04072735683968043, -0.703901437985422, -0.11850082779001436, 0.3457549105525559, 0.6511575462557948, -0.21650999319646225, 0.8359456603573314, 0.5048386770520135, -0.09431285656826116, -0.49091982524278044, 0.6326369504786056, -0.46980344667951, -0.4762287366099689, 0.2784216179449017, -0.7619435038268172, 0.03813499626009009, 0.3361370215880626, 0.8231157199196864, -0.7917519033159941, -0.5962777322332133, -0.13562869651620835, 0.7727446416692219, -0.8366620399594911, -0.14404255660616938, -0.303326329564912, 0.8676495206412185, -0.8680705132521966, -0.2847865829905658, 0.007349581916077597, -0.2867592267968224, -0.44314747336888205, -0.6483990191643985, -0.005301757183712619, -0.8986774542339833, -0.05487662848545716, 0.9760038614340587, 0.18102166412222664, -0.43678885638129294, 0.2937699540863348, -0.7898055292758723, -0.3798468825386774, -0.8941865053818128, 0.06900386784576962, -0.7785135887095136, 0.2238180503568341, 0.8836848130135031, -0.4668555318174481, -0.6478612928835954, -0.6178486841532367, 0.22438941926412737, 0.4798966063604311, -0.4238903508100327], [-0.0956378612978872, -0.3731640962523102, -0.8853576252519053, 0.8617334364859364, -0.6281706945451284, -0.9496282199906498, 0.5747596216519062, -0.6151239138566904, 0.7836388428122658, 0.6555556323923251, -0.6554192085173784, -0.17722147911866748, 0.43955788069206303, 0.6416912908202805, 0.5422563021666855, -0.46873079668559603, -0.7288678691913599, 0.571322541796339, -0.6893855794445027, -0.8043372894217664, 0.5458548978271036, 0.49555958103112596, -0.007998079536628344, -0.6053899526091835, -0.8590802721718092, 0.09020043694817836, -0.2457726488212253, 0.10882253306805745, 0.7025217565567254, 0.9231331016924065, -0.9310198277023938, -0.912742566412879, -0.5000193797780053, -0.16076006760948025, 0.8697740687665294, 0.5911166629909614, 0.7205762881147344, 0.44679094835311073, 0.7521712108777268, 0.1249200426791992, 0.8280165628942895, -0.49406295271584777, 0.15198408702612065, 0.0033137885914877874, -0.4109003264474713, -0.0028604994460099675, 0.3502564297801145, 0.4443503402448101, -0.5974918435733738, -0.9231415264774268, 0.6829213681701016, 0.5718607025279552, 0.5930528507957835, -0.7750003237094496, 0.9375952100912464, 0.46015310708968804, -0.9436526663778166, 0.08974522416354747, 0.05323050377162186, 0.28036811069323675, 0.474295044309613, -0.2486003315936791, 0.02380013271917769, 0.008886720582162777, -0.23348819290342426, -0.8922554977926527, 0.16139705806488647, 0.15574360812083654, -0.48393151883344143, -0.9394875952117641, -0.5542851794717645, -0.36886109143225077, -0.46240279434847453, 0.40664548827812186, -0.42023664248485404, 0.39156834551004116, -0.4959304774684299, 0.37447511511068465, -0.9979194938117113, -0.2822079638581265, -0.288717259088042, -0.6501985989108492, 0.781248849840716, 0.13499475536619743, -0.8542128225213932, -0.7618135813645628, -0.02870866495699964, -0.9605035305776826, 0.7488926888911593, 0.4107259498229683, -0.6723195781754319, -0.7130426152904135, -0.6912756794715493, -0.9800991668814527, 0.7017503069425886, 0.8808375653841207, -0.26752048421451136, -0.5467350970588145, 0.19475858627264175, -0.8761467620109948, 0.05660830067889089, 0.5271049620128028, 0.5140598847053659, -0.024983390705318964, 0.03717432959115108, -0.17763136949156744, 0.6723174017501221, 0.9200613761016034, -0.631090644330027, 0.06512866692799357, -0.44909714400346057, -0.12123949626599773, -0.6232730178337067, -0.5986897929566004, 0.22305829744568562, -0.9970008513968462, -0.670704566383429, 0.031229012130099765, -0.8430900728759385, -0.8870322195362439, -0.6486603568319911, -0.28348297491681396, -0.5045918024659934, 0.055550842113532006, -0.6928622698919888, -0.17107011684425544, 0.33783571277922464, -0.44347130385668043, -0.3265559047731146, 0.9211342298102048, 0.658359171201331, 0.6742376860492831, 0.21127084442395483, -0.6564246472591331, 0.697522335254559, -0.9705616471694092, 0.8582230135083933, 0.7442151205623844, 0.4589889313410067, -0.7996288919189607, -0.5140311152529382, 0.40183403651071536, 0.3131457122582264, 0.5377468507393308, 0.9205425538553695, 0.7261739643912755, 0.3918920938534094, -0.588159622388797, -0.031068113230372063, -0.6967676121653512, -0.11464440280108401, -0.35920868443728216, 0.10090275495124024, -0.8178495499158043, -0.3956970244550606, -0.9356753579374342, -0.3566697262863312, -0.25077744318302253, 0.5311443727892875, -0.15290993970085087, 0.3808621506553542, 0.41572875761251904, 0.5609051180991254, 0.6689702946543288, -0.3759514926673002, 0.4819829049439426, -0.17607723130717345, 0.19782361868006992, -0.2864102907317996, 0.8840457601840368, -0.6760035171552152, -0.35158170276327594, 0.6874875762007258, -0.03128708828226312, 0.034083245564315634, -0.5906090412203475, 0.7501069212279319, -0.3265881414111369, 0.9131146046885039, -0.27608268814814485, 0.9742474825450671, -0.08935237084318537, -0.11100990772762431, 0.3494152767297687, -0.4310707153430846, -0.08033383899317137, -0.7638095628766233, -0.9109479636496625, -0.364378873186465, -0.9631342044862787, 0.34572358460773445, 0.4755384429710423], [-0.6685000271460821, 0.4676817739829082, 0.4478641963822567, -0.27175157425503915, 0.7798008572816928, -0.7086389520929179, -0.33317148181586154, 0.8290903709155246, -0.023242664692299853, -0.029317518806037057, -0.8441077387289242, -0.7183583600151726, 0.8848211295552617, 0.22989424840142858, 0.745542079489909, 0.46277287599986394, 0.5908887630200241, 0.2487016040932346, 0.1817147624320119, 0.8045391306145189, -0.007060734016114623, 0.8353520303182043, 0.16909496819566816, -0.2802389301268542, 0.7752543149764228, -0.01373367672423531, -0.20385890829935271, -0.53960749016624, -0.6592807391952831, 0.6212991386267532, 0.19204480976524985, 0.1156703219978854, 0.029863557647106465, 0.8588282411843753, 0.17981195746930068, -0.30192573783512366, -0.9825856073824786, -0.841732477970627, -0.41435901328959157, 0.06608325291827666, -0.8645650974949806, -0.0034169362959655114, 0.3526726528897839, 0.6904434435138294, 0.4697069779854026, -0.8222791254973809, 0.38569553322093353, -0.7627242267204051, -0.9653280691897037, -0.617212788724588, -0.05057350180787212, -0.6677219393696199, -0.5300852083994332, -0.4193992673879221, 0.4707257670564202, 0.9910314305681058, -0.6823973975757818, -0.15304988747936443, -0.4317216940596533, 0.6000750892836053, 0.6424084441731306, -0.7265513077061112, 0.5740473414352969, -0.8164439295850845, -0.1899483340043755, 0.23856620556431718, 0.4358794327434097, -0.9401657644398123, 0.5878541246541222, 0.7282952580921531, 0.9575386462884123, -0.44724056876664164, -0.6493431269999621, -0.01719119114375811, -0.846155375023596, -0.41764402708259807, 0.3986228274515633, -0.2956010775442248, -0.1941083813745803, -0.8306867722649955, -0.9982479733008371, -0.39993362889710604, -0.9019221703464817, 0.25427166084032016, 0.29229276600734466, 0.966610138049798, 0.9566818853016448, 0.32585985409580287, -0.9351196852711907, 0.6592882880898427, 0.29725987492982875, -0.5982273629738746, 0.26998336494847774, -0.7055511268131573, -0.5595684284987523, -0.5811297808446447, 0.45418306991537505, -0.8482464402736722, 0.6005716638215921, -0.6478075277779831, 0.5715158390982313, 0.08088286830243274, 0.8652215488786641, -0.8121712805035466, 0.283563950554383, -0.9803035511026685, -0.587704154409711, 0.0689770921697026, 0.39303734580192784, -0.05491583829382862, -0.5008613116011735, -0.888774715889991, -0.14663800855382014, 0.3977393009743919, 0.008422219259103914, -0.8757403018320988, 0.4324223727544765, 0.2590870155300553, 0.885805533669713, 0.5879094075403395, 0.0057748498208030075, -0.007867910875779982, -0.43231225824069397, -0.5058840582153534, -0.7851543183829519, -0.2879468646013552, 0.2330374983325263, 0.09276844353601943, -0.079375751016173, -0.5591022158829533, -0.2034830851125793, 0.8764634851547557, -0.4353862009816851, 0.9323237378389542, 0.9929895769626793, 0.6085483331170223, 0.31306057654880637, 0.024391286271070456, 0.9572866613948878, 0.7440412764604096, 0.27461009460811936, 0.3263148921195622, 0.4727648368772479, -0.7766157354340466, -0.841184833375261, -0.6023849849135905, 0.6391725845082936, -0.424928254121991, 0.10418976999337337, 0.5959444088337122, -0.5616004046654544, 0.3398106810011321, 0.019232151567759814, -0.3022327440253969, -0.5680563632687767, 0.9296555260289605, -0.3907407499826525, 0.04868227185002616, -0.6568476709854207, 0.5241785382089605, 0.7646572905916937, 0.7971743401046925, 0.16365054361783193, -0.8809246579499423, 0.42221036981157245, -0.8453177979896558, 0.5364109433139939, -0.6408852487290164, -0.7085958948444686, -0.9018685824737136, -0.9460112442738846, 0.21601967653661225, 0.144742252077247, -0.752364597512484, 0.31391155873046617, -0.43369136976586775, 0.6921941334671804, -0.7276983731423823, 0.7774655813150431, 0.4425460759016995, 0.7154805778123148, -0.336728822845916, 0.9702214293866094, -0.002968367263893379, 0.9308238953128429, -0.7774808878374886, -0.8055599728652569, 0.07053997596844619, -0.9289049948865171, 0.22649713286392714, 0.19735407136111927, 0.43446508317693566], [-0.07462866673277868, -0.4088670206942775, 0.6723569262465052, -0.9704909742904599, -0.11131106918812872, 0.47205794350407215, 0.5565897692289308, 0.8462303300484497, 0.9832169380523512, -0.6712690605690663, 0.42696386488264193, -0.8095076508037578, -0.8719013449961712, -0.4789937479981352, 0.7696305373613048, 0.3150809613787522, -0.7334897468052743, -0.22696139282338557, 0.04175958026753168, -0.5781629177535328, 0.5398725391504189, 0.6777542209387779, -0.7824846660325242, 0.779497035844152, -0.06440842697639404, 0.8414640271522771, 0.40033784135408457, 0.027746360424066197, 0.6758387313840986, -0.09677703070345944, -0.3649092972999457, -0.24415098999694762, 0.1518741700431283, -0.6255363155903422, -0.021769087477006455, 0.23860168034030815, 0.4519571997356271, -0.7650493752257728, -0.16297671702246364, 0.9082662655227383, 0.7929574278976683, -0.2212089635415393, -0.34164185723652474, -0.433755868201789, -0.16476333632542972, 0.6368245699191011, 0.03312046430714921, 0.9637727422337179, 0.13889976389224667, 0.5042956412617505, 0.9164215863864227, 0.726436312773971, -0.5289350712140066, 0.3433082760530288, 0.612079946627688, -0.6452470486950748, 0.8965131015897856, -0.5085925296589517, 0.508080857522782, 0.1397623152911729, -0.2781763294873265, 0.6950295170733529, -0.1984227962781997, -0.5848396174265063, 0.6555106928118093, 0.5018554361208662, -0.3415371470828168, -0.33889185624666274, -0.8193482531038856, 0.20143691882289194, 0.1257799192327449, -0.7551739282765135, 0.1251715942596605, -0.6632320969673138, -0.8802429734771542, -0.21393723856842284, -0.050247295000629855, 0.8714520204967291, 0.9113744162609283, 0.3645634163661524, -0.6475654502858734, 0.8494286008851231, -0.4783903813251964, -0.04654322708545311, 0.7302280291078385, 0.3066652479808081, 0.9278782157570105, 0.7836279023496291, 0.299046458831119, -0.04311839544139895, 0.2742415907426188, -0.581406618449362, 0.13575220237348473, -0.9740895597209647, 0.888050823786781, 0.49079425773085994, -0.1807272095053052, 0.054052583190220105, -0.3092862666988585, 0.20438337796375916, 0.604927804479084, -0.6516144041413003, -0.42894281697504777, -0.7365951485153361, 0.2499749279909267, 0.430506763624394, -0.2682239165965945, -0.06463510181382737, -0.831998621324052, 0.20074009004453508, 0.3797447099173077, -0.023298335164193995, -0.9280393980284876, -0.48963123243090534, 0.1724051522528356, -0.926558475000749, 0.3434213317231425, -0.11090148009001477, -0.40282234856757193, 0.8904185069567072, 0.5578649983498232, 0.7659437330736749, -0.9633662244310106, 0.36546135626235565, -0.47805203627024784, -0.09889856598074132, 0.7543011516203679, -0.9192536492453367, -0.11774892751955623, 0.10778972608712545, 0.8442785527496384, -0.32454872927790923, 0.19213927300962008, 0.14818480455002314, 0.5646728002853507, -0.6102598403087174, -0.3486669674430849, 0.11915199496086482, 0.7547945762732027, 0.3078099868804465, 0.6192819326980425, 0.018314198266737414, -0.2732432205051296, 0.11250505453504123, 0.37901646622496576, -0.09683971193853202, 0.41834447110600204, -0.14550529733969286, -0.8743611071426056, 0.9808651102398929, 0.3673163282456735, -0.20498899566912154, 0.3097182937915559, -0.6690927092236589, 0.83186972299153, 0.7099111803102884, 0.6527676502357687, -0.30424714408376374, -0.814526837493736, 0.9713575583683769, 0.948630006115184, -0.19390468781076664, -0.726764131163327, 0.8608300929752049, 0.7765818207882462, -0.33175421546892236, 0.03161823645861106, 0.36994649973024507, 0.5678168484238741, -0.21742596872507103, -0.6149618520509168, -0.25407030304145883, 0.39585931507634475, 0.12906491081638816, 0.6366567135055017, 0.40577458128792543, -0.12516286350752237, 0.34704218225855343, 0.1259377278616034, 0.9931791374569019, 0.015849071572867857, 0.034892406584788205, 0.9531202736459248, 0.1353246638401453, 0.03765311756765932, -0.04079465215518341, 0.9463408568073344, -0.19655817983377677, 0.4846691538245482, -0.6384497862159311, 0.11867125698689729, -0.5807577200455447], [0.880964817805681, -0.22509914283291743, -0.5716842274207186, -0.7255911996560103, 0.9716304242481066, -0.08706009145429072, 0.9422370686519608, -0.5293896803449167, -0.7090025154781066, -0.10640448473180242, 0.3974807160283578, 0.12567732078961846, 0.7707480857741165, -0.834542769108471, 0.4047406478086426, 0.11823486238954861, -0.13949977690589077, -0.013353953662776474, -0.7103328161051903, 0.24673865115645954, -0.19009331772162752, 0.8453509471369625, 0.5409941465171215, -0.950019477915123, 0.3466560289405911, -0.8871873770873973, 0.6010624082555798, -0.26952178296376816, 0.9549560208254282, -0.8078730354296484, 0.15056076507744143, 0.3118054098117222, 0.9104937915711517, -0.5023559383968685, 0.9542045640883727, 0.7158575280512138, 0.38472954258738823, -0.6563072141031345, -0.48333545204795336, 0.42136833924561157, -0.9439017213460914, -0.47802065383252357, -0.5222146810795778, -0.6117570547399798, 0.10827221757470018, 0.5734182895959024, -0.3129138889004739, -0.929630976599247, 0.2690877315980955, 0.7842376151070538, -0.5018709298439779, 0.19112089302291735, 0.3884731723280028, 0.2054760543393639, 0.9261555407053095, 0.9092408502347884, 0.5528021344019407, 0.06270386707629094, 0.5211460247429767, 0.058305699790277776, 0.660366966184065, 0.14707758846501018, 0.28044302542425203, -0.6648999659468455, 0.4236111631007027, 0.9188692653912485, -0.21310762016246998, 0.9167240058846757, -0.5121716162919032, -0.03663330517252961, -0.3784123904245271, 0.49699758974804875, -0.11377034621190396, -0.3760563500500349, 0.3996400876015851, -0.6724085511956279, -0.7916742317310956, 0.8336603883422773, 0.7734920118000033, 0.0679230200233838, 0.8007558112180955, -0.003940631757031632, 0.025683044117053244, -0.2539766514908792, -0.14918046204212532, 0.16884077602026637, -0.4018036087134125, -0.7979628180494549, 0.671094358902278, 0.2599562140044682, 0.5785389615450918, -0.3839816580526558, -0.18457315322100798, -0.2705018579944771, 0.1375115809269014, 0.7715635103258629, 0.9694734265643732, 0.635513802570447, -0.7076790260374226, -0.1749671902728176, -0.5427365679209653, -0.44641605154467956, 0.17032902687736828, 0.8795311278228313, 0.08116961472852968, -0.42184519349296346, 0.5233943417204157, 0.05920898777141237, 0.8477060868669768, 0.5790768638434016, 0.3778310705044534, 0.7444023327192808, -0.0792849549303587, -0.10048706585547085, 0.21695793387977447, -0.04204669508994252, -0.20866256114324, 0.5457735735832225, 0.7633734301383259, -0.08579064580347406, 0.4315919193295872, 0.016917835433290396, 0.5592052015816642, 0.0373823465039278, -0.8498556233121028, -0.4750304230831117, 0.8073568585358357, -0.07872185965573997, -0.9232986833466184, 0.8724998520626812, 0.43995620790978207, -0.9546920035771256, -0.44806244029411535, 0.022818688616213167, -0.6382640083718318, -0.973965276175472, 0.5145846555965599, -0.15901233506895518, 0.011929109931262838, 0.085110140444846, 0.13948385612175018, 0.4877720419579301, -0.5708832857700938, -0.45298081640964183, -0.5657170377285083, -0.8842792466904457, 0.8091321333379435, -0.3364887266104204, -0.7567887601064438, -0.47368429712963445, 0.23797295936981566, 0.13503964722560102, 0.7305911659487476, -0.9171107200560522, -0.59362105144417, 0.12778848772706164, 0.23129191676703398, 0.6852084826286455, 0.31713020801062686, -0.6315608544297384, 0.0188050260336019, 0.6601696952566882, -0.41606185012292585, 0.9266194305198672, 0.2997063641406972, 0.5672284126800171, 0.10481670033795387, 0.7546757835549511, -0.3654108306906778, 0.4319634927459204, 0.8790510313146158, 0.09835429720963829, 0.7205521720695163, 0.38002117726587703, 0.9459854374913996, -0.31682322650427364, 0.21477128339797336, 0.24948696187405295, 0.18058014219008478, 0.5847684932865715, -0.29704888470348956, -0.4624123855506572, -0.21100187103492973, 0.49508836582485793, 0.07039638357264066, -0.6302997799027454, -0.9103362810083027, -0.651291576644315, -0.8033475698943016, 0.3615003292994561, -0.39688696067003915, 0.6066634016868959], [0.0695119357070737, 0.4347485140494056, 0.4397275471736515, 0.790306974701767, 0.3371746612950799, 0.2816485993643645, -0.7327416008875705, -0.3398146386821128, -0.2590210967185862, -0.12295244465334987, 0.7068258929573652, 0.21025380887271683, -0.9804529135821223, 0.715728150380539, -0.20249864270341456, 0.10774350416309963, -0.9487084775232204, -0.0388354651259013, -0.8733531829790011, 0.3589909235061479, 0.15160654164967013, 0.33472227236222873, 0.7364261662877472, 0.7001162305701956, -0.8140110624521846, 0.43798499113024825, -0.5044726941599991, -0.2851086441346893, -0.6119444901431725, -0.24656244402301497, -0.2303222680610859, 0.042376180813930464, 0.708076248779602, 0.6315601537830347, 0.6689870264867204, 0.8135584117509977, 0.9632495399149879, -0.22127915334167114, 0.5177700182825213, 0.8279508726483056, -0.9230950933912383, -0.6723085521455003, -0.6089728869121256, -0.4580090906410008, 0.5520760251754946, 0.8173925048940867, -0.9346128052139073, -0.6774511072353926, -0.6019792550564858, -0.06958502533731803, -0.29846564968582734, -0.8251807012921148, 0.8152798405878998, 0.37016350864323067, -0.738548751381372, -0.1747509794507296, -0.8973886303667937, -0.9750390454754023, 0.5064786794168445, -0.6278099254101526, -0.8028369135362834, -0.743320506282316, -0.22736971955706942, -0.5903368160055806, 0.8011465277587522, 0.9917683145589329, 0.6775954777003776, 0.21709342303255164, -0.10691222255967037, 0.28180138408841215, -0.6512048588137411, 0.004116943190409561, -0.9770418281325484, 0.45624814236320277, -0.08516559910297827, -0.2661495315769151, 0.48833300601206386, -0.35943973258979756, -0.48771742033644383, -0.825948032966574, -0.3647462616138113, -0.08127932743427824, 0.5339633082600226, -0.10969816409989597, 0.7018334711727117, -0.5666307041578356, -0.7018863755212414, 0.10945264634089868, 0.8040098187393614, 0.4639233356612311, 0.2539997219062047, -0.22864360650188664, 0.4551804803894042, -0.8190118511196125, 0.05932796891599401, -0.9901180748297069, -0.19688304877385598, -0.12947020663935094, -0.7726051712560364, -0.0117236081577341, 0.802468663400292, -0.2155284367731498, 0.8173133433422293, -0.9807846576018748, -0.9319394093792259, -0.8129985813293821, -0.06904923997398082, 0.520974016845899, 0.4038174090200406, 0.5789100777158458, 0.3568806451253561, -0.3029679362112365, 0.48892166896821876, 0.4434852855079363, 0.6033652111189376, 0.9246464348973265, -0.545137064677282, 0.18642230423745354, 0.7499966251485204, -0.7569832322529124, -0.08180138720664876, 0.35225195821861255, -0.7497502837403667, 0.9447532197029935, -0.8652052285435465, -0.6903332162616289, -0.1338128382677981, 0.45693577041244526, 0.1705911282342223, -0.9757175318517464, -0.758526253593798, -0.9245542532973174, -0.267957579495131, 0.7265727466272671, -0.10483462446059821, 0.5201738650949714, -0.5890832841996971, 0.7218141920104415, 0.14681689735159176, -0.05211428209893065, -0.8630352491610835, 0.5609820545282005, 0.022822880113535948, 0.22339866379426643, 0.8317282825113588, 0.7014132574452732, 0.28156803783298767, 0.6972824394195316, 0.75696763563318, 0.0461116085178952, -0.7291025808146201, -0.5714048201401161, 0.0018121678630094173, -0.7039929544622832, -0.5790709462984687, -0.4870033945774559, -0.20711352181118303, -0.830067974044532, -0.5520107470724684, -0.7127356486923742, 0.6159322744216851, -0.4405009591801945, -0.9558155577961895, -0.9613605157165166, 0.48406708390300235, 0.9525342664450571, -0.4596242093943186, -0.9499854972265973, 0.37775228906181835, -0.7052717914702855, 0.04624113556647402, 0.03768761656046005, 0.5703712204518414, -0.3485378778310366, -0.08713749459045883, -0.7815430550165605, -0.07866879849090647, -0.5437535338884953, 0.3101101193117217, -0.6569963135323071, 0.7823447472489709, -0.7320002136479382, -0.3811407959953379, 0.6849639367770055, -0.7081669214711539, 0.08215102187701673, 0.28234345912926506, -0.016770011187370093, -0.09031728083490687, -0.8064779892538272, 0.41782286410014335, 0.727329881499349], [0.8657910736024976, -0.5529903397155755, -0.32822681579113167, -0.9067194778971752, 0.33786787460986223, 0.4433910812367896, 0.9467863293339538, 0.17560614131851993, 0.8966500164729125, -0.8100206550464146, -0.8220630228750152, -0.9435076210966209, -0.6005557044223517, -0.36530773991227106, 0.42319762296221963, 0.3004686864342301, -0.6143697191689905, 0.7737542325445248, -0.9874577660905726, 0.6185915528680077, -0.24905575999769836, 0.43239608185795797, -0.19760842761508046, 0.8595229444936747, 0.8842066158208739, -0.3586739036120976, 0.9172046218234171, -0.037982244682966515, 0.6034470762351145, -0.5834945782356005, -0.8817277044924832, -0.7664708974415426, -0.05189114745236845, 0.7033630660073562, -0.3771283684724758, 0.12022974873291337, -0.894593259081456, -0.712742805028383, -0.7800282305174344, -0.28031217015104515, -0.6199865176806858, 0.5986859045550701, -0.9044605690257161, -0.6189544067611745, -0.41833804327639346, 0.01979718519331386, -0.4488124235965043, 0.3234049036334481, 0.267612485987315, 0.3500630054870286, -0.13646394928286298, -0.023733192967567263, 0.1960173361413471, -0.6266792205154403, -0.25482576133040014, -0.18415353706628457, -0.8527394251468343, 0.8879713365299262, -0.6200401343262516, -0.955983390630297, -0.2722698584002985, 0.43464806881101903, 0.693896277475589, 0.8194799356755944, -0.7766557309158886, 0.6319258455990766, 0.8896460905593324, -0.18866892046927175, 0.41565165734267406, -0.2972911663782365, -0.7359034013962626, -0.07975147215635014, 0.497161306978924, -0.11156496410441008, 0.7834413589903961, -0.24797207895518159, -0.8379697988475665, 0.6826595199026366, -0.8736312310506889, 0.5246377462001222, -0.6518422737371277, -0.18538897038029023, 0.5155318350590556, -0.6219652494175272, 0.18545088046343405, -0.5031201397525504, -0.6233160181625721, 0.37778966460846, -0.9462144482314343, 0.6727919779739355, 0.21512928390327346, 0.8710827388909821, 0.29669551075733525, -0.4943162919223749, 0.2940279104206964, 0.060547565643448875, 0.09129711742996283, -0.32442386622103614, 0.40258028778063615, -0.12018735813901782, -0.5154646124608915, 0.41660619482825223, -0.17311369931340215, -0.9491876692124914, -0.7284263146919141, 0.725899997192498, -0.05997009779858886, -0.9922063784600992, 0.7306894565978603, 0.9072767035224647, 0.18599965953614883, 0.6366685549091455, -0.012486553997924199, 0.9108401290669341, 0.1303071804420035, -0.3484416425768486, 0.1599186834028108, 0.31492100169277615, 0.2810466863808456, 0.6987566653188604, -0.8802952649982243, -0.24106508624091605, -0.5004318921750412, -0.036912078787289415, 0.6846766392596553, 0.49230750961659786, -0.9390401467097491, -0.22751423096326562, -0.6833479152813615, -0.5892353271751138, -0.6865040329235934, -0.3089337988955152, 0.13981782968366363, -0.9416374142444797, 0.5378144381457288, -0.4693993244621124, -0.8846703511219987, -0.5359549554046503, 0.8809209961129592, -0.004952096514276638, -0.3030202438328977, -0.8883581318989902, -0.9475582664455429, 0.2807599117777131, -0.10425466904196012, -0.23549812103228795, 0.6798244266589262, 0.8841080291719978, 0.28815059266091536, -0.626198401936487, -0.429765080041165, -0.5284653589883832, -0.16622246574913135, -0.8812121722239263, 0.022392698606854333, 0.14107912818932866, 0.614766097123902, 0.27589423168965754, -0.8582856821908396, 0.25133835551967754, 0.13799097876422417, 0.5000179150464987, -0.2812554056138534, -0.23706627979430528, -0.4999829305925687, -0.5162333622297661, 0.6719896579106093, -0.4182639967198456, 0.881213092052332, -0.36473602292258134, 0.5640669775626292, 0.9477255861820406, 0.37726446421471027, -0.054637527267717534, 0.7744143335711555, -0.20434723486597495, 0.6239705775992352, 0.8448357234686112, -0.29908069141658533, 0.12524525478078474, -0.7354082316743573, -0.07484062653680001, 0.26602543671276724, 0.15057222103165024, -0.030721571229937794, -0.13071337851988218, -0.5344418731152472, 0.55038734548069, 0.1352043442069535, 0.834708742698016, -0.8630618106650441, 0.9578867830497175], [-0.2141445488363316, -0.3187823972222692, 0.8574964451502851, 0.07796374603264233, 0.7852232676874109, -0.5454703521191542, -0.2686756149343197, -0.516374614697896, 0.07690145981905627, 0.7238262610954456, -0.12191259401767884, 0.3785051156403163, -0.8371768487993521, -0.017830903891738803, 0.9508741448304519, -0.21171730831758007, -0.8283894646064054, -0.05184513199764096, 0.3933075694198207, 0.09415031046374467, -0.8477626990810361, 0.9562744807038976, 0.823112179186374, 0.33654165754980414, 0.22883466597654634, 0.003550821369387336, -0.7914288349966965, -0.6043804774384227, -0.576610707363425, -0.3222198453489873, -0.037889074729540395, -0.7531555081812418, -0.5944073693452823, -0.3074889552520319, -0.5046369362628162, -0.7549631193302053, -0.08289250234749557, 0.013119380209633213, 0.7028328783174869, -0.5402119289270397, -0.11595473314405225, 0.18441616298521346, -0.14980479465909147, 0.932388585876732, -0.6029209891972052, 0.8939657053410117, 0.3830389934580347, 0.28220436228296264, -0.07082392828384743, -0.9284524816375417, -0.680875952028815, -0.29732951777186, -0.04681868740559958, -0.027484139088176374, 0.6467860995916022, -0.4791449549778557, -0.11286359382630962, -0.18690775274651195, 0.6344472860132331, -0.7259151177676559, -0.8398719483424766, -0.6230864269317709, 0.7259312435399012, -0.8796688989364247, -0.6416367945929642, 0.9566751196262397, -0.5629171968143316, 0.9216344751180487, -0.16217288828712562, -0.4141669827651704, 0.2886972332133697, -0.5376909471354865, 0.3531593714679222, 0.5115997709829181, -0.7409775094741919, 0.4265085996664979, 0.8614127936616702, -0.5760482390247048, -0.39733582071539075, -0.16096079668100405, 0.26231713087375685, -0.618545242746392, -0.19922929140943402, 0.5765036827306746, 0.9114914964011527, 0.40329518469286874, -0.4953602237069714, 0.9849323222276267, 0.562784375384566, -0.19290630447819668, -0.7138279755457597, 0.7082053924463365, -0.8346830635011226, 0.7253850374204756, -0.8551664387933644, -0.4489431320563131, -0.49422323699697657, 0.04453972590583244, -0.664697276411651, -0.34594558464602865, -0.6053084511598374, 0.19324979088051308, 0.14390859149642798, 0.7848059850468205, 0.12540474490039322, 0.553977923997089, 0.36111266008120246, 0.559381945449166, 0.6897675976094302, -0.7575361386080195, 0.4464248764829779, 0.8783029355425691, 0.7238186325694171, 0.19848006409636465, -0.21232896192162687, -0.5407357097812113, 0.7530865638173505, -0.6385636929541727, 0.8062054339497289, -0.7990775101536951, -0.23400680790733008, -0.8325981061110082, -0.649837335996682, -0.8221852705705557, 0.6478503801286228, -0.34353603695509993, 0.40075122461158674, 0.2303317582468316, -0.7360822189509717, -0.9441303089307083, -0.7980874291884112, 0.36515590343124904, 0.07857651966627155, -0.77257290135201, 0.21707356094333163, -0.4650385182096717, 0.7290198398618355, -0.8720538983146491, -0.7007522966730761, -0.9377562041349481, -0.6628036760335474, -0.8946682002639093, -0.7450710004156491, 0.6777743229580531, 0.7619251324996474, 0.8953139090682878, -0.24009377726362513, -0.5411473670457012, -0.46307726091985524, 0.32803215509985173, -0.9894676524389718, 0.7257939727043854, 0.27883813160977944, 0.3911882600911112, -0.5355489065703947, -0.4923695889781363, 0.9173042964011235, -0.7554197716544633, 0.5175777624451496, 0.32361213908087927, 0.5314006200638617, 0.49662621355381087, -0.12759352070260932, 0.7086288455422844, 0.32153078042567906, -0.2991733351025676, 0.5526236302812861, -0.4322970734788887, 0.7846839341034064, 0.14056637941041705, -0.22714654347229546, 0.3383487918338308, 0.2230816901482484, -0.4652874182658193, 0.9642718863323168, -0.11499819420024715, -0.5671664529097529, -0.9459536600932759, -0.13686528800551612, -0.23131717760042658, -0.6665934012316408, 0.4456835257478089, 0.27083248173754026, -0.566281401005569, -0.6243363087431553, 0.7951332841615433, -0.22826855792110745, 0.1209098102269377, 0.41871192237026755, 0.655750123836718, -0.9937446937960654, 0.743241312719553], [0.886624801144976, 0.3903397948081917, 0.11291429201949699, 0.7717836845313211, 0.17821739263779302, 0.7333704035160318, -0.8638413713635027, -0.9878989087952839, 0.025342546709430813, 0.10378436115978507, -0.45296442302700957, 0.9144278971706739, 0.5811010058203321, -0.6510920045863258, -0.8198488902572991, -0.5654219413277426, 0.2876668101065094, -0.3727070814139499, -0.4744059768608404, 0.12594329197653908, -0.3784679724645108, -0.9289900910502038, -0.6258880793435635, -0.8742162329710383, -0.002543129964850399, 0.0647040150105167, -0.24013526185712775, 0.989004172666357, 0.8298038207865206, -0.18236076880238028, 0.46799727872823405, -0.5433201765973292, -0.6011273285617538, 0.0816677452382013, 0.678829467023236, 0.7236719513045902, -0.4709687498681179, -0.164178954726107, 0.12585074251061812, -0.1303656800405455, 0.7341885722727632, -0.4657274226461976, -0.17815567440374425, -0.7630256782017923, -0.9872561680333427, 0.6782038939210269, 0.898385673725878, -0.21503322962453053, 0.9584012306755956, -0.6706164201770906, 0.32363887443924066, -0.0550401791114834, 0.7781145802448148, -0.23318518212624428, 0.9283504105549576, 0.7850779251327622, 0.3648909421681892, -0.8946914282225953, 0.0410510386810965, -0.44860313680156194, -0.5852881657267262, -0.09389441857320402, -0.17677147237995472, -0.3931066635898077, 0.32067102439960804, -0.4981962461595788, -0.03662750210717669, 0.45759415327218456, 0.556826845429272, -0.5271425501994238, -0.3481517840721442, 0.669180303105088, 0.4630232219745847, 0.7220582296566469, 0.13105794974581864, -0.9972444569079137, 0.6270159547297196, -0.3625008128251035, 0.6297745417093215, 0.024181120949971602, -0.4625420737325878, 0.9839315614382602, 0.03060006348291111, -0.6626403178180882, -0.12641284473942704, 0.7428325040438324, -0.6006830478317511, -0.42647995073468925, -0.6047724647500932, 0.22495812564363726, -0.8482741115156831, 0.7008611726389711, 0.17555482505684883, -0.11567615529996123, 0.7618577983171555, 0.33076199924928673, 0.06081234507320654, 0.8636312844681606, -0.07334854686598602, 0.36745444926593995, 0.5263134837772381, -0.9173125733909249, -0.4819680014147334, 0.41258366586754347, -0.8139971919290205, -0.03494392025640525, -0.04336304279641867, -0.9959541963590006, -0.2362202737515613, 0.6146906222538167, 0.42119496561851033, 0.09365647176531433, -0.6533045769212109, -0.7179098875398484, -0.40808546602125095, 0.9851298861969753, 0.4539544484719249, 0.0805976058273512, 0.7769900099867773, -0.6012277387881462, -0.15740008201408995, 0.039226670859435764, 0.8936424774030485, 0.4998449138118195, 0.11327557071640282, -0.759861461403871, 0.06273456768855734, 0.835779311170253, 0.5849841311015174, -0.9947253184542013, -0.871299529735371, 0.715251606934558, 0.7862965276776908, -0.11299616151576442, 0.39147398764808283, 0.08892199391022504, -0.3253330483367507, -0.6192117827670718, 0.6789852252324917, 0.4254940261841529, -0.8057029730458427, -0.6643956254917016, 0.2721780949649102, 0.7362212027390094, -0.840754259329612, 0.31380167643037504, 0.05950935421552517, -0.04210746056303849, -0.3180516686657229, -0.43668118613985474, -0.9130241227247371, -0.9340796274656769, -0.7761493513011575, -0.614766094506561, 0.5529156696127135, 0.1821865784842942, -0.9950397845999299, -0.25383776907023625, -0.6593631595475937, -0.2790801452135456, 0.8007714509465311, 0.6537049190230306, 0.7759367376425128, 0.5292441759302902, -0.5691646361914602, -0.29627360203143716, 0.6762585126136187, -0.444907629412151, -0.5949736790251476, -0.96265684838724, -0.17982805700467286, 0.4959388406898595, -0.742544220586498, -0.183451247782209, -0.6206135597196882, -0.6205202400981824, 0.6516724214441625, 0.4675097086476494, -0.6507801887558806, -0.6032681737614378, -0.0763375325336566, 0.2772071148856097, 0.3009656571542525, 0.16701924979478777, -0.7991102391527836, -0.1394583555227371, 0.6702349951383015, 0.6324920241484013, -0.3390722399418351, -0.7924634775658497, 0.2672543136444654, 0.7345948703671987], [0.17573523451640272, 0.48230443022669034, 0.3164871356824539, 0.4227414616820342, -0.04688310904237336, 0.3619922037143508, -0.9406762005496578, 0.8262528578415012, -0.44748663472209915, -0.6300612406599133, 0.3164585443663759, 0.5102479227486274, 0.3273493837391108, -0.1452102828379671, -0.11223151868862002, -0.30619889007547174, -0.13441272000758153, -0.5772059853680751, 0.869927625067076, -0.682374239608933, 0.9690442948980811, -0.20292884451159265, 0.02540445104735478, 0.6635656331971507, -0.32303989634300256, 0.05124453966684106, 0.2823295025544068, 0.2528115815351826, -0.5808455353575608, 0.559518862186754, 0.9725926370066766, -0.5335928498554081, 0.6155708808456342, 0.35757362416833205, -0.96359189016727, 0.7222520064457196, 0.7668709011446491, 0.19823525977319534, -0.4004814477692571, -0.9601891000024867, -0.7147428417050659, -0.8412243427295147, -0.19653086270727949, 0.30774430325092483, 0.3183599504131813, 0.34094829621106726, 0.9980135402479131, 0.6361712737197416, -0.9492037130850997, 0.005217895613890633, 0.1584320385802349, -0.8328655620621437, -0.9650293744106251, 0.3723007781919565, 0.14523171517932343, -0.7431024925001757, -0.5412502416273044, -0.9379082691045857, 0.6315080569033595, 0.10231757300839006, -0.01613025547655922, -0.2772008323352837, 0.5861000607475124, 0.7780153199673521, -0.8829045153526116, 0.7626385786559244, -0.4162097037044159, 0.5824529451819858, -0.13556637061467214, -0.0781558779455156, -0.7531327195159259, -0.9411394257735941, 0.36614038884785094, 0.2911232466269935, 0.5142698448299647, 0.7458437779795748, -0.7093622061761466, -0.5410882299232627, -0.8760854825765412, -0.4379199624866583, 0.09550703528287952, 0.6540233118239531, -0.5624933345977063, 0.840129533607624, -0.29312612431719787, -0.3196027437028237, -0.19527222504368824, -0.011163742403600185, 0.8739834632154775, 0.9680868050408205, 0.6311463649978626, -0.8763607268221589, 0.18658625803384266, -0.9134192100576244, -0.1557119189635483, -0.4765143322033256, -0.6390644518844177, -0.6193886049460235, -0.20467538342506186, -0.9845930255310906, -0.44994388929878837, -0.5379897428885976, 0.20141009716547842, 0.492990783603104, -0.03240914810874296, 0.5340597763303763, -0.6179314101857156, -0.8855298500485194, -0.9357536815228613, 0.37700573200490894, -0.5888316879641655, -0.19205979471033374, -0.0723422900883317, -0.7719046963603975, -0.8260232224502488, 0.35098366776040035, -0.44991935856268017, -0.8381508791716568, -0.34035540422545285, 0.6490899986752117, -0.26355398973339805, 0.23096662736247509, 0.4229259842757003, 0.9236593117971834, 0.31271920361112526, -0.7291114574534019, 0.010819354022608252, 0.9037272530541731, -0.41130767459587014, -0.49785325754901133, 0.7633109006949341, 0.3612760166470359, -0.7498027021540794, -0.022870606108477798, -0.8066452672876823, 0.2574058810243509, 0.7436884927488128, -0.8229597466995331, -0.8643460162710297, 0.36919453364112753, 0.772265345422898, 0.09306507741207315, 0.028493645136993484, -0.6740607526587534, 0.9504221679798743, -0.4135973002412836, -0.7354452509834404, -0.09060563210150341, 0.14558193971132893, 0.2539734074528479, -0.7118876220449528, 0.8045609507889679, 0.2281120961409684, 0.7793672539385477, 0.6631501471285963, -0.32420249716667415, -0.1362942572933452, 0.9839414563668507, 0.8472031827540925, -0.20332041782094334, 0.8940626663280711, -0.38852268743193963, 0.7312658384796986, 0.9651117285825637, 0.8656143156723619, 0.6328697805098986, 0.4126265372965794, -0.6660385678959568, 0.4041448028146921, 0.7358519647709103, -0.49294366323824135, -0.3498698831117084, -0.4599129584830255, -0.7292488353804709, -0.3396138670874329, -0.7026004910838191, 0.1811627337308792, 0.8426310295245838, 0.5158170870641441, -0.8393830090953798, -0.10550495963852091, 0.7315786990635369, 0.7541008666776232, 0.45590163826050567, 0.4110270291237703, 0.7272845812681883, -0.8113867861807611, 0.49135346676398206, 0.2530100144889078, 0.806143623573635, -0.6545880342015113, 0.6164124688410355], [0.3750166948336433, 0.08265281298452298, 0.23209316219715337, 0.2009480659559082, 0.9619187833906415, 0.2527584678487991, 0.6880372104539756, -0.24735078714270076, -0.1635288421448624, 0.6525598413621758, 0.7988747983463673, 0.448340293393789, -0.8174965451433747, -0.597409964820582, -0.9197159682772487, -0.5328250143078952, 0.593808514988746, -0.15575096937997834, 0.3781926703651193, -0.2676991610171662, -0.339881983450558, -0.10132566443446356, 0.5721858868655505, 0.10502742128187115, -0.952600105131648, 0.2540850944866213, -0.2779362462980337, -0.240341148265524, -0.8818661878360843, -0.20819470769246728, 0.8008827566793408, 0.8527504967003467, 0.47701519760573485, -0.4717727709715034, -0.913625537754237, -0.895002848296838, 0.11242759467410557, -0.1930066427909809, -0.5987410714813908, 0.7781602150829379, -0.5600880280761671, 0.7520249116841984, 0.1430866438669025, -0.9206465445089254, -0.15605913405067673, -0.6288895320479191, -0.8127324989493532, -0.5682128533085844, 0.6841973302618958, 0.009644256045888255, 0.035893909443295735, -0.403585732926941, 0.2380180846317772, -0.4510729450503659, 0.8949661968195979, 0.09314790670089801, -0.5501666302401975, -0.22184668241840177, -0.5727182304975944, -0.013911701004558408, 0.43225205464223193, 0.6451749196680585, 0.3287409943546167, -0.4714029091784564, 0.6209494900713759, -0.1815433464699885, 0.8142776812815626, 0.8539719728865365, -0.6219383167845445, 0.8304085273478627, -0.8476633831164577, 0.029633839620050173, -0.9357928393099095, -0.8131681382096048, 0.3432789648740697, -0.1326455630061969, 0.34302859803440966, 0.9673806519327206, -0.4479622403239516, 0.3259277475823785, -0.6669370117556745, -0.6036501009661814, -0.7541658954999408, 0.02716551440126791, 0.35988108323354906, -0.2933987844597685, 0.8701882744135654, -0.8533358146600962, 0.9828175141439093, -0.48392972327965533, 0.28379402297872836, -0.2525751855954155, 0.7333745879483766, -0.20991802328751819, -0.9137917252908141, 0.8109075690267569, -0.252703264655618, 0.10229006854575196, -0.960442552659649, -0.10480405951514427, -0.7353036886260853, -0.12803312921548815, 0.6392475224702352, 0.8838967605264589, -0.9328464011198863, 0.295047641441774, 0.5715411121439447, 0.29038124747821104, -0.03317662580524772, -0.32653365050485106, 0.6516679728641135, 0.6389710371503714, 0.41753981369989734, 0.21232827626521122, 0.41243945703159834, -0.8104378509158932, 0.014326247212948617, -0.944078011775483, -0.42230091917863843, -0.4847456978472273, -0.4159314105637326, -0.21016031782851252, 0.024138768982449266, -0.8692568382898618, 0.677981260915969, 0.3423456071666464, 0.6510464913333214, 0.7653472879491385, 0.32646541556514697, 0.86152506199546, 0.6050592743927519, -0.09032384330514032, -0.8251781591621019, -0.6758523325672416, -0.6179035360911378, 0.07106182992449894, -0.9144893595747638, -0.47241507807776073, -0.5344022540193021, 0.44679994768783393, -0.3430182326958975, -0.2910478796287934, -0.9059632162405202, -0.7166385004551321, -0.06918735544108223, -0.002763798509120008, -0.5981890457338526, -0.12089123049219119, 0.5439767015343644, -0.10994740373429646, -0.9783526504402411, -0.6025067365175121, 0.18517196966986815, 0.030913052023005205, -0.9845211019008906, 0.7663155350779798, -0.2747508286556277, 0.8535904795902551, -0.6797393334325774, 0.9061861896139671, 0.1518470860990313, -0.8875767224849513, -0.5644920663481965, 0.5269231992201828, 0.25076466888114424, -0.05124244063418271, 0.3719678869355023, -0.8007057548157239, 0.35236349321914795, 0.0646730323652065, -0.9068761551016387, -0.4479313830915177, -0.04414302781942414, -0.48987773038172566, 0.8627744634818062, -0.7392290426897348, -0.9157714503473273, -0.870862284619015, 0.6174248645229499, 0.0016332301729977683, 0.14718676420129828, 0.5552525050699062, -0.1128722467629737, 0.10318229221500741, -0.5390888749202736, -0.8855375715058131, -0.22794974870574514, 0.05225555083893796, -0.0014397491064472856, -0.8971990358739999, 0.06412301992808311, 0.060788907768119405], [-0.040906960867992836, -0.44043801514499425, -0.6556633593519905, 0.093232516717769, 0.46162938952491195, 0.1283116775453106, 0.46819973781569657, 0.15825967651318673, 0.26337135668476597, 0.02273196221843543, 0.1866485234487676, 0.5955914057863758, 0.16900436805398344, 0.7284969132059316, 0.46074858043842637, -0.5117207465223594, -0.3635788694005502, -0.5321105326719433, -0.40022337938475583, -0.8297692419199332, 0.7843981176112103, 0.9258597236892869, 0.0501632030403556, 0.9383933639813062, 0.5211656988613049, -0.1343309055388191, -0.7907473900257189, -0.9088265240144491, 0.10233914174806236, -0.8900792895531628, 0.36400964656005375, -0.3744657311945325, -0.6309927618304563, -0.3154319963745258, -0.45962850504197195, -0.3478563785465292, -0.23439043036382734, 0.7451816209317819, -0.8546185878089543, -0.33270635843131746, -0.913461464020795, -0.02806254203669778, 0.14059517891753703, 0.5114536566361017, -0.6122424338386243, -0.009947877664523874, -0.23163047077783938, 0.6546723423100629, -0.8539289261444614, 0.1473908596663227, 0.8384526143415147, -0.29093496902352634, 0.19525681931990246, -0.46927287188632616, 0.07004907189577891, -0.4059630679007593, 0.47415293121101487, 0.12841713710865932, 0.7574533725133896, 0.17947947713146983, -0.8886281547449952, -0.12771300499013405, -0.6769146956969727, -0.936279129604634, 0.306321302686384, 0.45099314887497455, -0.39645444039522926, -0.37215705000289345, 0.8452110809877127, -0.8627950679114733, 0.926819493869012, -0.7571255485785227, 0.9996760829157394, 0.6406250555878668, 0.7243490803925574, 0.2881813081422484, -0.22201548318683195, 0.11697059359958639, -0.5576900715538957, -0.1839891193538894, 0.05051239013682762, -0.6725590983874055, 0.7903791016283412, -0.21491251597738814, 0.45311816366638213, -0.20523203618784414, 0.6639935024325909, 0.31709461959864016, -0.25801107181819316, -0.8931460518643775, 0.8254165975476921, 0.6495106132175033, 0.25871061719683275, 0.15174199219051365, -0.7034369518306591, -0.7438352605648102, -0.9033225722856069, -0.24527927247399006, 0.03195064787111557, 0.15478536550437938, 0.7963619836659732, -0.40802240094367503, 0.9507038977067426, 0.5792243888230222, 0.9797042538075187, -0.26050406332924103, -0.520533505501467, 0.9807370004676117, -0.1365779004242611, -0.7152478813245144, 0.17558728576245342, -0.8180205141132366, -0.7407355281195203, -0.6088847979773087, -0.7090086000639895, -0.9167376932063949, 0.40748723801546993, -0.41520611415660613, 0.3519226680187626, -0.21032033611742196, 0.5413363813517682, 0.011473047480651033, 0.353488260264299, 0.8623709310439591, 0.6997474628983371, 0.5464968677038364, 0.399992474237582, -0.8107375076430143, -0.6677722062892526, 0.8137681334887492, 0.3836860676504539, -0.89985644791741, -0.18690749881568447, 0.2685902524985415, 0.7654002905009818, -0.6116125429880364, -0.27081282103515103, 0.872297122914244, 0.26964533674784397, 0.7676677986204832, 0.9159232202238203, -0.375350606956923, 0.5005308692159809, 0.5496928400520058, -0.5373570719715637, -0.3922852121718594, -0.02784556688976969, -0.5436997898495943, 0.32053210565235646, -0.45668724440705843, -0.9643737581837835, 0.5474483416090838, -0.5465993238061011, -0.41759131769998903, 0.6512240397482725, -0.8485285174856279, 0.10388533441618297, -0.30867296866980487, 0.9653156054373986, -0.8567252897405349, 0.11342959364388161, -0.5766000726170162, 0.13133573107116936, -0.36893034033151517, 0.17460286324999008, -0.29473135153006425, 0.26197327299684625, 0.7404612656322265, -0.06508223789681034, 0.48262118003961185, 0.713055491367034, 0.8720357743389178, 0.7431551013195665, 0.8852353307177943, -0.11654882368920272, 0.6678144490541986, -0.8819338081406782, -0.9952122335207643, 0.9987649101594047, 0.0321414741119912, 0.560021717870526, 0.7207285130893346, -0.7531127494517194, 0.6110267580703523, 0.3742820925669814, 0.8900705740748744, 0.5860914928107561, 0.3015078654347765, -0.4432139920833984, 0.7511668993633669, 0.25877274349464985, -0.498833540269372], [0.9509888834082287, -0.11295703093160792, -0.7263168586024984, -0.9774439421630403, 0.7800506287013909, 0.13755143540580939, 0.0793664259958693, -0.904228826747457, 0.7236487587631228, -0.22540598929552425, -0.7749703918338011, 0.7784045239238688, 0.5648033162819659, 0.7705230316416509, -0.6720285820159202, -0.5162141682926187, 0.44401190462208695, 0.6349952867641995, 0.3967002861719242, 0.4439811420032853, -0.11028594036600925, 0.9867381937590249, 0.8510371336635618, -0.5972642801328103, -0.1384196568908933, -0.7289845701877689, 0.5998291164604383, -0.6287772688300428, -0.5080718469234466, 0.17014472410574877, -0.7498371108307298, -0.8290469955857418, 0.17499183014841746, -0.5077025126007904, 0.7334653958016768, -0.8975782052970314, 0.2579470720125929, -0.03959895204436048, -0.43341732126009624, -0.6703751438808137, -0.999359207845115, 0.3766539482456397, 0.3009143888780408, 0.378452626033726, 0.530289791766767, 0.09692565391994745, 0.5237518638868015, 0.7175350418318962, 0.19646292245250696, 0.1907954707352888, -0.14148902465240187, -0.7795602653781517, 0.4947450029255589, 0.6035514415210113, 0.3932059640301955, -0.3658937725768536, 0.7168830664238159, -0.7634749571374622, -0.8483338296855067, -0.9820521204323904, 0.26091449443753345, -0.15652228274891566, 0.44267744279233456, 0.029923474683795526, -0.6489803009596427, -0.138258767689736, 0.9530872131039361, 0.5222148934510413, 0.05088865318590363, -0.4800214860443368, -0.050557416176273406, 0.2585058492567269, -0.3496734300227391, 0.9238936635846311, 0.051516233004559986, 0.09674552863276298, 0.9750754391014043, 0.2037123255741322, 0.6921692546444429, -0.8345792304847615, 0.2182501307921103, 0.17565263574248147, 0.05698390325609726, -0.702788927487523, -0.6747916237313878, -0.21743481408926235, 0.47021483867817193, 0.917701547360132, 0.0325094533099588, 0.6587178451272371, -0.1663749280520319, -0.8004532332177028, 0.9630203171438443, 0.03847750009397344, 0.24625020493116856, -0.47885968644869337, -0.26853393280786353, 0.9920744851765704, 0.12216553497733518, -0.24319139389287514, 0.46529667517452755, -0.011444067363106658, 0.045258147598382426, 0.0020890151658541356, -0.14489740073910906, 0.2590359605236954, 0.9860646413867471, -0.33513531168494226, -0.061023794554497135, 0.4949458979320862, 0.24165749547333992, -0.40217989776830665, -0.7566211664537079, 0.9432604042596586, 0.5160474970030957, -0.6868688757465866, -0.20276951324445136, 0.24202357270195463, 0.19870550008701038, -0.203474327763574, 0.429000815221922, -0.3666619249472791, 0.1476261281197857, 0.2996343614886674, 0.9638204276796885, 0.40111567379572, -0.8889435262699772, -0.9119447534324903, 0.8969203624989017, 0.603385917743317, 0.8245740635134222, -0.3738923731736654, 0.6045945278658633, -0.696807807859259, -0.9848711424275425, 0.4991478358787451, -0.6546962987664824, -0.49673341566097573, 0.9534542605016099, 0.8595104705529879, 0.8962855099275668, 0.45261060123806307, 0.4159079832043273, 0.8464852574483579, 0.09452955656735385, 0.5217428290671449, 0.09540000879185229, -0.6567216066994035, -0.0616893230396931, 0.16274024719859637, -0.295119487743263, -0.7279818275385219, -0.9968605069690519, -0.3680622799390747, 0.6153478036506226, 0.11585354788012636, -0.9986737048586136, -0.9474281368443884, 0.1262970545716382, 0.022324261656909927, -0.9127986800332866, 0.043772835003983435, 0.9953127166003171, -0.05547565221979589, -0.7762411688560666, -0.4550831756154894, 0.6312854368571474, -0.674239458001995, -0.6881532799830887, 0.5876371038927912, 0.36809550846172057, 0.48442500187888404, -0.4461789613703757, 0.640117461662183, -0.04548485700529081, 0.8363647360956659, -0.9232086081976905, 0.4248778614009143, 0.746874110726425, -0.06234033599226385, -0.24563774425504437, -0.9284821692329528, -0.6723197686160072, 0.6658220412117193, 0.5568583365651931, 0.16940529188621678, -0.07700910354385027, 0.8376999243723073, 0.0725412126084366, -0.0123637901776108, -0.22490052889106926, -0.3484498749178202], [0.44224550321959866, -0.9413913381302534, -0.5413123449106392, 0.8814855525607157, -0.544055437612595, -0.9776909516141121, -0.507565359511982, -0.5115839995526159, 0.18673168993806044, 0.12060855938157444, 0.06772079680359644, -0.5601027407496699, -0.8975880253815993, 0.12363982585380429, 0.2473359679578433, -0.7858363684045044, -0.1856323637271473, -0.25659514501085323, -0.2568753354586546, -0.5356517659197839, -0.8176540397627898, -0.8127969484762563, 0.8562158167047507, -0.5883713619915041, -0.8548386663462191, -0.23602275869036893, 0.19388804825544148, 0.2573335862934043, -0.45350304437000144, -0.6714080351939835, -0.674289219915484, 0.6062850518243692, -0.5563562803012023, 0.3982385734320968, 0.9349859910585052, 0.09607327289328849, 0.8603328706351612, 0.797552126214434, 0.25168105829388576, 0.8728589080156273, -0.16455790884820543, 0.07143213009150862, 0.913511697687007, 0.12359297329286201, 0.9593498494664461, -0.9733789032522029, -0.851193010541264, -0.08963779415129403, -0.46830398778554505, 0.7047425144447808, 0.36146941160143076, -0.3166315176138892, 0.8596191813911969, 0.5720655485177335, 0.3606165180247536, -0.675501718396244, -0.4642757067364036, -0.8554439916605927, 0.22177016635856472, 0.7365847397799463, 0.1624150678985239, 0.11172740916060953, -0.6827430222559407, -0.009981118737272476, 0.27109583984512664, -0.33436629053292766, 0.35517543015681263, -0.7330264959770847, 0.10600425655130441, 0.9394824897904894, 0.980323407141334, 0.5868878442789724, 0.8260236362745192, 0.8635421771271707, 0.2827720756197105, -0.7986458045274674, -0.697076385556562, 0.7306764074950551, -0.8916181587787846, -0.5918718022501301, 0.952254848392007, -0.38588843232961856, 0.08568187398378169, 0.007771664779653298, 0.9270425295321771, -0.48533150064592356, -0.2074611196246865, 0.3441861615306536, -0.7261625393607629, 0.4836330557329491, 0.9122328151348169, -0.039234115844871686, -0.9259167779353814, 0.844571585034346, -0.49433294117741666, -0.7884314463040669, -0.6249676532517441, -0.23165695586247925, -0.7170444142847594, 0.516390261280794, -0.8206598316477627, -0.11817200136356165, 0.9592803385207627, 0.8093058786171765, 0.5144238195425859, 0.8877240041701662, 0.7640224949957073, -0.9715292472208774, 0.8144201645523035, 0.8183244362522912, -0.47473653566612417, 0.9583376380495288, 0.6927867153089293, -0.4972542442527541, 0.5258948406177553, 0.17136466628132196, -0.5404572201283664, 0.8387861350707713, 0.03559747798085722, 0.624249102164679, -0.6131350506742415, 0.2980913476731575, 0.645574531838969, 0.24657778183943546, 0.6004950891977721, -0.07674665562829297, 0.21254740391026794, 0.3631540815399754, 0.7925154774611292, 0.32169783694370335, 0.6737607360117845, 0.06904365212636865, 0.6778106021021129, 0.4901511401076808, -0.9662938484511499, 0.8726424728840176, 0.4826469068814303, 0.9662969015531868, -0.43280158279169245, -0.14170523769679422, -0.33436032641773217, -0.41644163094963527, 0.5322513247999627, 0.10449047650244525, -0.34241668924477997, 0.41661051659253956, -0.5180469032092008, 0.019700478622306727, -0.05630936053228108, 0.6272277104792965, 0.8742828213702896, 0.02969403139221405, -0.38963274079320165, -0.8788356787324276, 0.04885080248507778, 0.1785987333624044, 0.8284028852457768, 0.6901261018266078, 0.45142699420953725, -0.484407735848182, -0.4972218103758721, 0.6037630088016521, -0.02622614024253367, -0.68994162349859, 0.3248102101809902, 0.1192376788466114, -0.6342012272692685, -0.23769936886165888, -0.8043426287442965, -0.6494506041599701, 0.5271859985914706, -0.10042637125886356, -0.4455201284202861, 0.1362867790168636, -0.6980780937364952, -0.5854876259408652, -0.5953342163784165, 0.02342320526456465, -0.5533878448724858, 0.8897227489726578, -0.36855688836186196, -0.19456416949882893, 0.2806200788267541, -0.23022426269578822, -0.7005709566053941, 0.3203663185118053, 0.22417865534264658, -0.506890997619049, -0.5607692987593715, -0.03957112825236808, 0.5958175958752872, -0.16090163135994806], [0.4280493657764175, -0.043752898825141884, -0.8530322282819047, 0.8674248392294053, 0.28418007140431256, 0.46042530253225666, 0.41935790506041304, 0.9002912496750515, -0.39616591109862864, -0.8880523297478409, 0.7769186455452874, -0.9996734370851563, -0.9165107679561018, -0.6106600857034596, 0.6484940426641834, -0.33271236512634306, -0.5353585794118882, 0.6949638369618627, 0.9690393449886971, 0.09114526455426852, -0.6943515692168998, 0.4777115494994766, -0.4604418608084204, 0.6806503430489763, 0.3617193043986091, 0.5826197368938457, -0.5181038005834355, 0.25174949558379756, 0.7882198141210399, -0.3390325974244117, -0.8636382753494731, -0.960017090785475, 0.9818295397636945, 0.6491226965227876, -0.17512986878344106, -0.8287985589342401, 0.7497531188992832, 0.48970714319665754, 0.017395392793168263, -0.6618833024810962, -0.05519339165819459, 0.574900856650848, 0.004646864589281208, -0.6754073221708072, 0.7846373556970119, 0.7947712605978932, -0.6453482851344308, -0.8617817164914343, 0.9608780131098915, -0.6002949471528669, -0.5311672303108499, 0.24338159660861725, 0.5299515946192719, 0.6182528291499054, 0.5714977165237403, 0.22345718820412053, 0.5920136741603008, -0.525833056346005, -0.949389914547949, 0.1007460538225795, 0.36207341892267797, -0.7462457972927885, 0.19410653802652655, 0.11951897254118049, 0.8728364596833547, 0.7924122682279229, 0.8890359351339945, -0.061965216084564734, -0.852127587125332, -0.4402599705612873, 0.8639882847514577, -0.3080023314324314, 0.6260430919706184, -0.7025444289209963, 0.8182432549960028, 0.5959767469892019, -0.05045431758673513, 0.21489719466282065, -0.12104825950786102, 0.6110415834212723, -0.5335409464521783, -0.36405563054359424, 0.645609807933677, -0.9091703987784354, 0.627412304401755, 0.5203705412791899, -0.9457637844485784, 0.08733929138051999, -0.9080322578183397, 0.3245358519691435, -0.649081245487845, -0.2971008120000542, -0.34617319189811124, -0.7647959169434704, -0.9385220281046485, -0.8108387944973983, -0.4253384263508546, 0.1278565504136866, -0.294105336102894, -0.6851060607613255, -0.4747276592234124, -0.8849711594199106, -0.35032208783761254, -0.5918365074917995, 0.6718617314284008, 0.6296150424818407, -0.24677120603018743, -0.40476964621711975, 0.5344120479878951, -0.9365387699359775, -0.9156524313404748, 0.3876388660180141, -0.4006603906108528, -0.48194549086278493, -0.8642621706856806, 0.19677796615584975, -0.5897439378905636, 0.6114123668520639, -0.511529804331031, -0.9376097083685289, -0.9431694229961949, 0.669496175576199, -0.9219778841525466, -0.7494009714350582, -0.846904165665908, -0.6636334294004775, 0.2838705933344303, -0.1052841739074526, 0.24725578668980885, -0.8917542386958408, 0.44447111517464877, 0.7256573068340118, -0.9666537725303488, 0.29295986662584506, -0.8329970898824635, 0.9398548548610122, 0.5930274032840908, 0.3842358815835767, 0.9701571295866227, -0.43307416864033077, -0.6250904307295249, -0.4836913044055633, -0.5863737808528298, -0.86704464538421, -0.5674967600306227, 0.12143301739341195, -0.5832920648079767, -0.9586171969622399, -0.17649813970686123, -0.04031132730581222, 0.8831213336229766, -0.03772040755979633, -0.4755770943117199, -0.13945667938473827, -0.03938658709227538, 0.5890301769245696, 0.447272234887111, 0.6940259368877342, -0.27891550456820413, 0.16670781087598496, 0.09295706615635879, -0.3438364442790942, 0.056888246327285064, -0.46553826958962263, 0.13748336963738517, -0.923885813285795, -0.07166747625808556, -0.6950312651277979, 0.5653435888824512, -0.26897042083731826, -0.7712291546755841, 0.14707216284483393, -0.8144881465397602, -0.251906649693741, -0.41121876860590834, 0.6582193333549897, 0.6982956337268282, -0.235495162807005, -0.45561290045648906, 0.6757738039274686, -0.2795248407466875, -0.5055354546201571, 0.4304772595611792, -0.462965527868078, -0.17167300650623574, -0.5020153182979044, -0.37444076429639783, 0.015856710032404298, -0.7219653612218153, -0.7629364445739486, 0.18433749133858557, -0.7875710278442953], [0.19809481708792465, 0.12513438389906884, -0.9004609815330951, -0.9064675609914303, 0.49044889863035523, 0.8755768361448093, 0.7105610382799183, -0.523077877519796, -0.74131604976386, -0.35428764993596396, -0.06558184230667519, -0.6078013860466831, 0.5111981316667629, -0.7630082034583345, 0.3738455910880578, 0.1878015832163309, 0.18363183402931194, 0.17692500554806267, -0.864225279127719, 0.32088898320428205, 0.8847385542944994, -0.4141843279416595, 0.10334589187105903, 0.43407559989292954, -0.4034199180277662, -0.3110224242099031, 0.8035385163965998, 0.3496366702233793, -0.9725128072518303, -0.37239921355383565, 0.4409860648366124, 0.5131371550503228, 0.6343877274501923, 0.08261605253756299, 0.5485431661788172, 0.07118881111797482, 0.07536540298146455, 0.7842908990589998, -0.7526881488223474, 0.857553676746333, -0.5454037381339185, -0.1830231336578121, 0.12618615626901697, -0.9580446775394988, 0.7867577339968905, 0.5200120202371992, 0.23216305916649338, 0.3680767703714727, -0.6309728606986453, 0.292489328620257, -0.4763877402532839, -0.0979801772637503, 0.5450927380805484, -0.213967873312239, -0.31150728226557955, 0.9456019539918448, 0.5450323098410181, -0.36246116279700247, -0.7669051295471103, -0.5676436788796284, -0.6806510387240008, 0.2904775336605392, 0.908264055506862, -0.6462018863559966, 0.10945164010485531, -0.4384580913524214, -0.5654081485338389, -0.05781615605700985, 0.2591009735874754, -0.9710038229097973, 0.8429465093615693, -0.35087350547391694, 0.9411425065795267, -0.07734089802083788, -0.6692075467802012, -0.9889135195807877, -0.6302589109553332, -0.07388649972680095, 0.3951112208558305, -0.09825723234213846, 0.6682881528442377, 0.8603919173786336, 0.5077826456601258, 0.9942788192658827, 0.9892636932369718, -0.07467442425176096, -0.6970636170767648, 0.48959384709826015, 0.0111156230354994, -0.9580007688410963, -0.10199655728822887, -0.3432381918580012, 0.42386484137967395, 0.16681013731369787, 0.17920548451855867, 0.2787126009033485, -0.5425503558187363, 0.7880632800062468, -0.685285785889568, 0.7445502767176471, -0.6159620979030691, 0.3042237081920831, -0.7885183687589588, -0.83005979590254, -0.06606100795000747, 0.7942291045405527, -0.506296897202982, 0.33594084216954845, -0.9028058372716545, 0.5369821884316137, -0.9107304193723431, -0.855014438881865, 0.8357522407801208, 0.6569493967878308, -0.30969033418086833, -0.36989388826900416, -0.3800040637727471, 0.2434797953634944, 0.4114918991925578, -0.06800789460864842, 0.6030969668556414, 0.5494953638528515, 0.9109481781508437, 0.5344444512539306, -0.06667306629644476, 0.7652238626046297, -0.7447006063302812, -0.9836753421007391, -0.5659611046680506, -0.09021596069321403, 0.474907711951045, -0.8730132223333751, -0.11998834179175066, 0.9255686725505328, 0.5286353959630303, 0.4837408044586382, -0.4023539438628796, -0.6714275944968391, 0.07913809656923765, 0.06495880261614873, 0.2957413118428003, -0.659641488748677, 0.41440113528607303, -0.7709721806728103, 0.8451338114469227, -0.09615673836346073, 0.7466274946887039, -0.9639880738469335, 0.3352803745059476, -0.08599728834680409, 0.5699118912506886, -0.732663935471384, -0.6465640246558921, -0.978302280206977, -0.16500096733500347, -0.592821785756523, -0.26773846195752915, -0.946079937796618, 0.8554779930140011, -0.1364225617262731, 0.8652070856445433, -0.17568806024457917, -0.16074443951502637, 0.09144523290883488, 0.8668035127105616, 0.546577362469052, -0.7989559983900718, 0.8885498577165962, -0.0006313122219629985, 0.231106828676656, -0.6819683353821464, -0.6663395559393168, -0.6394230548675353, 0.1297688904756209, -0.809920479638353, 0.17948833859745705, 0.5882339363170377, -0.8098883375890136, 0.5867389018012532, 0.44244829086839466, -0.7018673654504277, 0.3115217630965288, -0.8147580992624568, 0.3640679875233437, 0.2659907899937288, 0.8953973395746422, -0.02879614708142042, 0.6974406697671882, 0.5847072167264908, -0.8626643001932555, 0.3879740181502802, 0.0677662174778555], [0.43896838163171337, -0.2976634374413143, 0.006959993313959911, -0.30899757636383063, -0.8235067948047397, -0.42018014436366324, 0.472009902730812, -0.10968758920764454, -0.7718103456191618, -0.6850684683929698, 0.042246162073581894, -0.8318246710289325, -0.15930110742461023, 0.3168901900387793, -0.5131896209030817, 0.25649163435914857, -0.1530430178445794, 0.7827474773457981, -0.6443181472178572, -0.12242224460804452, 0.46699701674978256, 0.20214553129264212, -0.8764249244744715, 0.4815980850297794, -0.19280493684197464, 0.9987728778667782, -0.10025826838927387, 0.4225703440893087, -0.4005233901247214, 0.19218654724976814, 0.21908955651168927, -0.927445624166163, -0.21518383182548262, -0.9623527673885117, -0.8836512478221803, 0.37306323823831145, 0.2745646446952843, -0.10862316915384129, -0.0538635327114898, -0.20720766654049272, -0.8034265835211656, 0.9796463272147811, 0.5577733319818334, -0.3440090014293009, 0.8102869348038733, -0.276465316295589, 0.7633001267272383, -0.32721122597686847, -0.6997245004906036, -0.6842487339210568, -0.7010047888437205, 0.7544154486487491, 0.199093322510284, -0.34688972816095287, -0.3313880180580735, -0.4227889587215541, -0.26871421642377125, -0.12807395062355242, 0.7978344110224014, -0.3729146493283466, -0.5580554448505459, 0.528255630626109, 0.14319213442086487, -0.14157215946355306, -0.3215752161209866, 0.22262116132006238, 0.33038426578276514, -0.32820358784558534, 0.3029170183948864, -0.655432122936654, -0.4274744919806617, -0.5349179793310224, -0.8033790712264219, 0.338196144122316, -0.10313557873298573, -0.7204964528076954, 0.23582543351680063, 0.5592240364825114, -0.6947881088033696, -0.22939804927062246, 0.5976732085555823, -0.1617345975992075, -0.037266540365177514, 0.7080758287947979, 0.5190211818153452, 0.3294986792921961, 0.057919450409104734, 0.2857935142087582, -0.6854837533724811, -0.9655035692904546, -0.5611909403229303, 0.27403068013582055, -0.5966912453007496, 0.3988319192420844, 0.7234245898955933, 0.9322420497534409, 0.6208502851962237, 0.11737850988366505, 0.2586535158898491, -0.9320698167404227, 0.8603509217466907, -0.701534746650015, -0.8342848299845274, -0.43107742493817525, -0.31666538093240537, 0.09510405055879123, -0.44051184777081853, -0.09234774828357972, -0.6391757199042181, 0.18867344241608786, -0.5146129890449855, -0.40903060339601427, 0.6293052327234279, 0.8910675068410303, 0.6009742030006124, -0.0019721492801676455, -0.3473585334172111, 0.17911608671943124, 0.8062980002949565, 0.5683421095700818, 0.1958884409615309, -0.42764400985390294, 0.7859472732963897, -0.27592125954033886, 0.95404749548636, 0.827299169944175, 0.12258376738904198, 0.47186185181982454, -0.47493812339021346, -0.9146914425106449, -0.5275463514290182, -0.8329791513100917, 0.2732060175325661, 0.47045914117620224, -0.1468245124541001, 0.21001803998089486, -0.33478372912555043, -0.4845093776035825, 0.2702909715510433, -0.7650248732486378, 0.25546763600822486, -0.4646981404514674, 0.11464661500961704, -0.9186383901537871, -0.3277373672031767, 0.3840904816229571, 0.30868743083133565, 0.2685946627859104, -0.40056778141233185, 0.9137521415410319, 0.0400146167244948, -0.8916106796631713, -0.36205809523087806, -0.21296780955067485, -0.20091338595355235, -0.9824371277672801, 0.10443788097589723, -0.12970741776100847, 0.9943195768014716, 0.374347699933947, 0.7035586166330792, -0.2467319560314285, -0.46595926723570735, 0.5852502308723868, 0.8209210958403947, -0.18148834733247643, 0.6806992247901305, 0.30161769557055407, 0.19324117084723635, 0.10132806252876958, 0.05152211841477783, 0.40348976621036226, 0.8434159141015467, -0.5317872031735955, -0.0841655449900458, -0.23719862404149872, -0.9148471234791102, 0.9715004405709948, -0.5335760189740384, 0.8459331708278182, 0.08583917042371336, -0.30699589291179485, -0.2756426356318704, 0.08760722259047915, 0.7570203703276557, 0.8552156776009125, -0.304095947259976, 0.2963858078636965, 0.6129618477754262, 0.19460045317124997, 0.7908299643719745, -0.23491350341286132], [0.3362781242527044, -0.3511343453706264, 0.2870018169732804, 0.8656461787211458, -0.5873732580584166, 0.4345722773194396, 0.05293114272945565, -0.8570558687238092, 0.8479217351728057, 0.6980088555890329, -0.7945558197086671, 0.050230065448670924, 0.34230497918470904, -0.5142055461468551, 0.5068711534721027, 0.21400068812386408, -0.08143957911524802, 0.22571765225138818, -0.6969018462721475, -0.6230434983308664, 0.38309960333542414, -0.16483515991592546, -0.019818206459078835, -0.07572469295458739, -0.026650062672819885, 0.2238036740552407, 0.349952960924216, 0.6208794817398622, -0.17269199776054767, -0.13155704365032728, -0.34639020882577776, 0.5359008511161643, 0.8990523794809926, 0.13837760729005755, 0.9529603166386844, 0.4911968689281936, 0.5119826384676764, 0.4973083861384182, -0.6596822186549076, -0.13900998572748113, -0.2505758806829905, 0.5083155743003049, -0.46651413154628507, 0.7594681673898558, 0.35050431424909645, -0.2832686735388106, -0.38631589262316246, 0.5533124082360852, 0.14295209162054934, -0.6577483142834415, 0.7050416247114593, 0.15360906354017123, -0.6190425271793147, 0.21276697388236876, 0.8202968735697922, 0.505663740544837, -0.2293464758622734, 0.4000549176047563, 0.7771137332640898, 0.6753150479146612, 0.24452654034833765, -0.7448772877334127, -0.8692473156337763, -0.9334675763836797, -0.3690096234677236, -0.9831136471505038, 0.9678939121566008, 0.5332223163967131, -0.5197525657577293, -0.8767773044344096, 0.44467856733835887, 0.7286707158553405, -0.1433882679500469, 0.2811853772763082, 0.5779066716525842, 0.3029247995675499, 0.9858300160326698, -0.22644200486862154, 0.9227358138178217, -0.7675795539265649, -0.7591379473623348, -0.17227517569423578, 0.8136266910850458, 0.10510700059779454, 0.8727116836235653, -0.7968906588409783, -0.6642222097451234, 0.46291902300806864, -0.9197366696901916, -0.17174148837806547, 0.9881564001876804, -0.0194704033554729, -0.5289607524417714, 0.41632565367340146, -0.4122922726736269, 0.19576605850016593, 0.6997246704371824, -0.18845833700496595, -0.4649761586327885, -0.9169820334689172, 0.8696959731522262, -0.3508423531872047, -0.47001257818196773, 0.8969409768963954, -0.0604436519980609, -0.5356518153874028, -0.7622437268587188, -0.5277395776440239, -0.7174110119990469, -0.35443275349472403, -0.18102170654843164, -0.8008305990442377, 0.9144243714558402, -0.16340442833203284, 0.6609661890561678, -0.26445370985564076, -0.7564344736722128, 0.954436873927774, -0.8304182254452339, -0.5983140677888481, -0.45263800499473317, 0.9023352246314214, 0.8881922030739069, 0.01313860683812873, -0.12451827315553698, 0.6810313738004692, 0.49637137641619566, 0.43097760136909646, 0.5343956655379298, -0.1545608363571518, -0.630683216545417, -0.37075387834930074, -0.13276635792146618, 0.47699100826473373, 0.5528249193320587, -0.7973056142217279, 0.45016233143718765, -0.7115444564671967, -0.6042017168242346, -0.9671650631289628, 0.8034363835082412, -0.9805008389323746, 0.2163731923084513, -0.4078417622759487, -0.19747215973984544, 0.43783289123794344, 0.09051800484515105, 0.5943941770399532, 0.05601758957209957, 0.07831772620861566, -0.6745194975217963, -0.8801439201447818, 0.65353715948681, -0.674833346024375, 0.47361235536909585, 0.3888974938330636, -0.773430293774207, -0.6146257448407699, 0.056874742532668776, -0.7833532720799099, -0.07651578886736088, 0.21076868740737464, 0.8164869456041608, -0.7949755019316587, -0.08799395814101452, -0.0773663802930844, 0.11594571845038626, -0.5484830859848528, -0.27654343167691486, -0.9277588424134369, 0.13715892388952766, 0.10625517137259011, -0.3261072093848505, 0.6168773156176037, -0.9573974945329506, -0.5656890793954503, 0.8239307504126252, -0.7504311206488825, -0.5260743540991901, 0.7079742238553759, 0.4437275272562542, 0.980335107617462, 0.9235930377262214, -0.40651097185725305, 0.8551773870382506, -0.6543316587073007, 0.509972174576176, 0.5655272441550374, 0.1403530337761354, 0.13269527585113727, 0.9254102347012665, -0.4059573505475962], [0.06006199987718808, 0.7361584155879843, 0.6490400371066964, 0.7273503130841297, -0.9316073440306201, -0.879176196717226, -0.4358145363392516, 0.8640957224449806, 0.26590737979623613, -0.8623088816304947, 0.044727795164201334, -0.5901334784152692, 0.8278021348177853, 0.193438685956556, 0.6913735354775215, -0.5618226269749687, -0.6375587927495403, 0.58028369442955, -0.8403407300078061, 0.3004301619478338, -0.1729859865388561, 0.8999942199303397, -0.4033445477854103, 0.6198591320113804, 0.7570316924392164, 0.9063060589133654, -0.12203755465536537, 0.23818605566982254, 0.6741342117192579, 0.010989468272049274, -0.7502617679096892, -0.21052195711010224, -0.16029832220872597, -0.35665021666390184, 0.33272032353880254, 0.7211614662210566, -0.4256926075031038, -0.12386587740400623, 0.16862559771395969, -0.09931933749938637, 0.48351694518300703, 0.010845380854254127, -0.4259324245191216, 0.8239163230841209, -0.9733079392845616, 0.7731573562311327, 0.38806966665882014, 0.4927560309544696, -0.8758462233422721, -0.594455312314462, -0.42754254175945583, 0.6911334575500341, 0.03125535168768612, -0.15282205988456066, 0.8205127192091519, -0.1337465308232384, -0.9136042480594577, 0.9028824670333016, -0.7586271238705797, -0.9733168750107046, 0.15493414013922258, 0.2934036966079856, -0.7884307197183025, -0.5823696762012103, 0.3855005065824957, 0.35346345098354326, -0.7135033279574821, -0.25600972989010873, 0.3616111359953085, 0.8504728080603903, -0.9158544637054018, 0.44978471563242794, -0.30833762928171815, 0.5669155485946813, 0.9068571620891912, 0.775280329801834, -0.17548922739477502, 0.11531741647314564, -0.7035756116728993, 0.5709141599936054, -0.49999135759705227, 0.4247890943484456, 0.7683797263402339, 0.5541520923964551, -0.07584118653249772, -0.5129670038951857, 0.06218411081678088, -0.8232654235919372, 0.12887070463101513, 0.18904489096829669, -0.9786053396041021, -0.22884359100659712, -0.7690613471749574, -0.21221422249279676, 0.9899495827367419, -0.16614425225198937, -0.3569150894690496, 0.004496531351779298, -0.7135272469238951, -0.07775901802727514, -0.7266091162629023, -0.753662639311562, 0.04453936865829067, 0.11230232354108116, 0.3588334738799519, 0.5467450808502796, -0.7951512760913015, 0.887874453996311, -0.0014637530217367356, 0.3519041676899919, 0.9325093161488875, 0.2721486876294985, 0.13778343579078478, -0.6602033421718974, 0.9415225521754498, 0.6873928054135463, 0.13013497531292928, 0.8847768503059654, -0.01488548740531992, 0.017182015920575777, -0.8970836205348405, 0.028996992049152626, -0.09387028005859288, 0.14784575681616574, 0.5014225976836408, 0.7260344890733339, -0.3940000756134705, -0.5253741840826158, 0.7915861013191421, -0.5277239279824568, 0.8553887875732051, 0.23667436491832206, -0.37863842491307165, 0.15652876028357676, -0.2826424404000767, 0.08267783643295945, 0.24754315162428342, -0.6613359005178372, -0.6602944536729884, -0.19305643439619846, 0.6472061304292855, -0.37447344566158436, 0.1258946738243425, -0.046666109174070325, 0.04957856743897726, -0.7928244572954886, -0.2628786842650286, 0.43153640485862943, -0.5378291433004092, -0.45940104614504484, -0.995169816466767, 0.6167098776208633, -0.8689789268104933, 0.3131139163163792, 0.6231173245318062, 0.6798981902668382, -0.7171796964271029, -0.11250497047703711, -0.8107420048989749, -0.3627415542642136, 0.4299603142909627, -0.9000174658053253, 0.8011550941639585, -0.40560249031179074, -0.45795434689259573, -0.14688193724293952, -0.3166950701719178, -0.39056248772087576, -0.9620949631729301, 0.5232327779945352, 0.4006110509351306, -0.38952616633260173, -0.20216597357550192, 0.327197972947195, 0.62776807963779, -0.3988568616455117, 0.6436306739251056, 0.2161226556683833, 0.2809117774043548, 0.050035784898152746, -0.260967413744553, -0.1033557020733511, 0.1783151638277367, 0.038167767363957106, -0.07586527757870076, -0.20131439965634312, 0.3811869918814612, 0.26820923317326617, -0.06351833079109626, 0.9272771082866662, 0.6253461620108858, -0.3231679668744556], [-0.2145313022725035, 0.17006440899622843, -0.2108751674944409, -0.6130477842139981, 0.9344831470954329, 0.7937582598096715, 0.10099842399252923, -0.6161099974821749, -0.8777807766409975, 0.9746172558000108, -0.2666395711220271, 0.6209406403691369, 0.22262195095981485, -0.18138096966597406, 0.4416330888166926, -0.8535885133283334, 0.3074528001538164, 0.9046147942005847, 0.8815967365299366, -0.4739540034132341, -0.3376142681887946, 0.3233592113915056, 0.41679862036936877, -0.44723811644070044, -0.7108305924855332, -0.2794524416991315, -0.922457070565573, 0.14941179486734102, -0.4948630870948627, -0.1236168029403637, 0.03675463487032249, -0.7365135509725629, 0.9311632439712048, -0.7771229136533018, -0.7274447089353593, 0.3877201960994252, 0.9503955409953175, 0.00753540340338632, -0.11542197350388594, 0.524872615922058, 0.469193326654886, -0.5657751597981042, -0.23974849042925928, -0.3425122161348819, -0.6066403531844471, -0.5032698784289045, 0.422578527274883, -0.7782515380792103, -0.0725424516493769, 0.9251527370280099, 0.8877389680360219, -0.7435478139225815, 0.35495922543628966, -0.9257246997142412, -0.5681081351814743, 0.2541778494700697, -0.3820560165641973, 0.13203769203289806, 0.34522798769886376, 0.4120857570470786, 0.7218308849645465, -0.878761579261677, -0.5454487812862883, 0.13553872664542266, 0.6773945514224919, 0.7811394503789146, -0.626577679607025, -0.17836280353614908, 0.7985940383905157, -0.6901810934409276, 0.8425526088013109, 0.6585771571508341, 0.062153425535405704, -0.7213574607166067, -0.2724246023173287, -0.48367619805537276, 0.5276576942037625, 0.7048243120050024, 0.6949778617838973, 0.011351466258353593, -0.7886194438498575, 0.22523145967351765, 0.3813652624861985, 0.5913807561511988, -0.44930172488065345, 0.02279911095114384, 0.531908822233317, -0.5943815662226013, -0.49236742874397854, -0.17059503606189508, -0.10486371680933537, 0.142994831665316, -0.010630312339429793, 0.5521487632798086, -0.1091868574724768, -0.5335061639260283, 0.9099544684311447, 0.2170815550731322, -0.5342073767854498, -0.9119835963516927, -0.5217140111370986, -0.5923463450488495, 0.9960605140997201, -0.6423303007899464, -0.032831648711079575, 0.14392044041496632, 0.8661424597887639, -0.14973117442249118, -0.5199833817041488, 0.7055169624121209, -0.8485808581584637, 0.8439063773713869, 0.5328935576571314, -0.08670231195413458, 0.7856043154109111, 0.6962921941896505, 0.14849429936101166, 0.6499827091950252, -0.902338151086874, 0.9804459485387733, 0.18772821447310517, 0.373556987163735, 0.26573603159724213, 0.6194127882556415, 0.29718666755768797, -0.9761567881176403, -0.5441716184976928, -0.707060564684767, -0.4770520008461001, 0.9730089836549836, -0.8998618958753364, -0.09703646946581612, 0.3454470005448642, -0.5287144006616029, 0.9149691126064912, 0.5275059006095781, 0.4002325897537755, 0.36499365742483025, -0.885648684777282, -0.011045174035366756, 0.9421953769234377, -0.2496361702821408, -0.5435610323180098, -0.6951808101292525, 0.09802814672654869, -0.20490611342033205, 0.536703352565711, -0.8496964564360083, -0.9805002821169924, -0.6796295423189926, -0.7483799403446638, -0.5541609100543103, 0.6593814324273555, -0.5701462887161188, -0.9242923895355031, 0.621862659351788, -0.31230773648021315, 0.9074934365194707, -0.038412543480817574, -0.9307786264920945, 0.9421172499129427, -0.8544594524764766, -0.1791807741645084, -0.9266587654556784, 0.3337698102444637, -0.5473788503599188, 0.3652987340373395, 0.36355916617755635, 0.0404377654274104, 0.07152625130726564, 0.5413475009387065, 0.8638145859602222, 0.5563895168276856, -0.7282248974133503, 0.2928680798733303, -0.14801502018049617, 0.9397630568149107, 0.2901326918633875, -0.8989505999064915, 0.720308318705412, -0.6484465802930379, 0.9070559220195549, 0.9993806185078957, -0.9456993757994627, -0.8568967951712652, 0.3593158931080782, 0.5159276709299265, -0.14615275772125647, -0.4820749875241439, 0.09893709528372874, -0.5285532892895448, 0.7120961755226878], [0.5962955267238084, 0.7093556106502341, 0.18660874708592456, -0.7511814979056923, 0.550931129399121, -0.5177102295727307, 0.313137124542777, 0.9025335831899328, -0.004722822288610651, 0.9567225926372833, 0.3702396613865284, -0.4505221140348665, 