[[-0.7286483444300871, -0.18732155258634786, 0.545165989858699, 0.43526382826973836, -0.7449741120763613, 1.1504952087303069, 0.19247526809716287, -0.36657434474154765, 0.9029686112045672, 0.9693202696839562, 0.37711118975906355, 0.7047321590500852, -0.5861172234224119, -0.6396943998166671, -0.08066804740304205, -0.18158952085204125, -0.2735312926400259, 0.014796145552143761, 0.3399368743342348, 0.8673600379154445, -0.12879622069628377, 1.0713606685271009, -0.7402654351877647, -0.33104172899031553, 0.8301380240239811, -0.024099554176530345, 0.8447374809176647, 0.5509960101665157, 0.9163286084301996, -0.07140712312537938, -0.4021833188176503, -0.1525012473365538, -0.7483746366034931, -0.045961212451641954, -0.29888553783621136, 0.02633468092903551, 0.12975480977715284, -0.05589145117777657, 0.7992247098202832, -0.15599716118289395, 0.13738464399378625, 0.8755330631167977, -0.520127428654334, -0.7282530602310187, -0.6597727702082241, -0.1874721818174907, -0.40108192547074184, -0.33845933696298436, 1.0216517237585814, -0.6704847081056855, -0.4821704327454781, 0.9813620639125122, 0.8963870836768895, -0.5276353825903652, -0.19400720673545194, -0.15296655472818563, -0.31417322945695075, -0.4426431750576363, -0.3008991144380226, -0.4666299778055225, 1.135822009997181, -0.518767647659151, 0.5836807481712841, -0.23307999076965585, 0.7931755098885813, -0.8218050427780985, -0.2865347090651224, -0.6704792584316359, 0.7886871320707411, -0.732768699673807, 1.0389663533465254, 1.0831279315038547, 1.010266018826224, 0.010301099041368837, -0.17355138666161732, -0.277352342604477, -0.7460431385340043, -0.2815914823355869, -0.3697724138451897, 0.09416892018002511, -0.32227128138714684, -0.6853073138067187, 1.0840179986118204, 0.791578287410247, 0.334579323048976, 1.1623306985560793, -0.4696967728543437, -0.22023274213636185, 0.21331949348257778, -0.7786240032008866, -0.48651541630944956, -0.0027044101621949146, -0.13374539844291708, 0.8588927698162776, -0.2924504434894403, 0.5991644385588851, 1.039540491392212, 0.9036295043720279, -0.42697277599615024, 0.698705395282825, -0.06477130447325645, 0.05911111553587168, -0.732774256322166, -0.4593742184021616, 0.6558875570720664, 0.7836070468225855, 0.6730679890219647, -0.10545259026213306, -0.562767062394752, 0.658503809686372, -0.22463003892586061, -0.6051618489471249, 0.4878937910159931, -0.4756144434011515, 0.47139734768855296, 0.6381779076328722, 1.1080052763931485, -0.1601559555122415, 1.0615329877099988, -0.08993866155397386, -0.14427936014902767, -0.571481722787319, -0.614568475967715, -0.6585626563059204, 0.24292939623444548, 0.7350998070107655, 0.554482143314571, 1.1683458777874796], [0.8211422992652495, -0.6261565927282493, -0.535768151233347, 0.9712776535675813, -0.40134306540049375, -0.504765693926005, -0.10632739194132458, 0.0380807991656485, -0.3033798688600506, 0.5914468225645979, -0.2958764515059111, -0.8159595219850413, -0.2702364175967113, 0.006768117189740703, 0.8866062668515122, -0.32192637885196923, -0.1317937127713013, 1.0893013372043372, 1.131133036435624, -0.0029704205622893554, 0.27323712158238017, -0.5746174861232765, 0.3950060224203452, -0.28333680761430097, 0.3987969483565713, 0.23304618046830933, 0.3477015134978041, 0.8535262886913804, 0.5050360382274477, 0.10772699254354469, -0.4056164348321086, 0.7813115272812843, 0.7723124999764894, -0.44691494383726105, -0.3775041963600352, 1.1751197858111821, 0.15707296403583307, -0.5850266434356566, 0.03972071625422572, -0.1732892259347462, -0.3633349278052271, 0.29650032458451425, 0.6469824678798441, 0.3920894272692284, 0.965568554125471, 0.646981278788513, 0.22285429620169028, 1.1403044158412226, -0.7863841888002774, -0.8107368843288572, 1.147897234324863, 0.5792396940058739, 0.7516571563860437, 1.040177056115228, 0.5123649528657006, 0.9050594716946512, -0.626495172747898, -0.5044124496370834, 0.44113240013955407, 0.8771359628358815, 1.0785047256943967, -0.7368631612407139, 0.07775604651565994, -0.04228048252372597, -0.297139643392982, -0.1294354524556644, 0.7196479184847466, 0.7957955463638255, 0.0504413331818219, -0.3511376709241944, 0.8229100065773702, 0.04769181988852416, 0.9062210811888867, 0.7423161023066014, 0.9598398426411556, -0.3253396686047534, 0.6957187055843559, -0.03441717299684544, 0.3387249549774136, -0.19080698220411582, 0.1356685851826005, 0.4236354928030755, -0.06766692981221827, 0.3840368482547567, -0.7710043692363204, 1.0293725389292088, -0.10496102669278408, -0.6217922095252193, 0.6838092539404432, 0.0512674665861868, 0.6595171248520437, 0.45637488841853485, 0.5765381074610275, 0.44009891199179735, 0.6373969288439336, 0.4165303091042427, -0.3876654561357724, 0.27878029475044586, 0.5453051507270842, 0.561200713551624, -0.304865835073669, -0.4103058231855278, 1.1286363627936138, -0.7972546567195791, 0.304168463059583, -0.4171766860863733, -0.5138319471501658, -0.20212394984997897, 0.610950665312577, 0.2888338807514229, 0.3955053557358442, -0.4429975442918983, 0.9707257562900224, 0.07318952334399187, -0.49690537114132705, 0.6334252739103334, -0.16100274317856356, 0.707339060430425, 1.1633154844343743, 0.7714877670783411, 0.30515053072698184, 1.0565080450233222, -0.21964880828308536, 0.3877171541028895, -0.312889398371664, -0.6286402537483347, 0.287102091528357, 0.21870708694947838], [-0.8084102502223893, -0.7075503825455871, -0.7161561990573222, 1.0249946717627472, -0.5764181185930144, 0.43630826543340145, -0.16696826172741985, -0.587584808603413, 0.15011303093788045, -0.2574822618610452, 0.311228017910727, 0.23816420229369678, 0.7449393944573692, 0.4899261108624054, 0.3776842589953462, 0.39248486044474445, 0.15906189819059116, -0.0506607396279297, 1.094134858395347, 0.9460678635857833, -0.08587372283394738, 0.5493294868561003, -0.593872574180329, 0.6406608253034187, -0.29356836289277183, 1.0183672983074108, 0.9383501336624731, 0.08630952914721982, -0.5908325855033516, -0.019253336271012784, 0.013816869613226427, -0.4106604906435639, 0.21894335018838207, 0.6857357842358787, 0.7538064903710953, -0.06949313076680556, 1.0171945808318934, 0.8021950807291722, -0.08039614671237476, -0.5006405110137835, 0.7469875799029375, 0.22518733438549385, 0.2668571834409854, 0.4413978119298872, 0.9852995225165098, -0.1236066724341761, -0.13944648713078225, 0.03119089380647827, -0.38199285316540754, -0.7862371911000241, 0.18148618222236168, 0.3953000831391106, -0.6885752372927043, -0.39426288711606844, 0.11843094599647545, -0.13159740226653266, 0.3124689918199469, 1.0830457942047933, -0.5756074764312735, -0.38116710646301466, 1.0927259385175228, 0.7915375311712773, -0.49318528228396413, -0.09357756963930418, -0.33143476981761294, 0.18769369324978769, 0.566174466726041, -0.42325209091752936, 0.3141506345039099, 1.0733226441791606, 0.5633689233805673, 1.0925886993527287, 0.10607154671855205, 0.8586223146255552, 0.7551865289382931, 0.6657495558765272, 0.573164509801974, -0.3390379799527978, 1.1536512027342427, -0.6476653323482144, 0.06752361374314275, 0.15720835626251864, -0.41081395979304347, 0.22747632844674567, 0.6219445998730223, 0.436273152624114, -0.7963255257605353, 0.06967352348689194, 0.08911306182749225, -0.13981750398638373, 1.0878413306885353, 1.113544183353433, -0.6244205998549652, 0.27375632385354326, -0.10169786880049349, -0.4487417008985699, -0.6738247858555875, 0.2037709653854432, -0.4006785602819356, -0.5018169961009373, -0.2035489645147537, 0.5298685211701453, -0.4049735231676788, 0.695565965091121, 0.015072079700818645, 1.114738114072884, 0.8776192725764604, 1.1538284327282355, 0.5147187045897996, -0.17016631313274874, -0.17342042642703973, -0.8134808928639912, 0.049816988384350495, -0.7348960889712288, -0.16822344682087997, -0.6504840976560304, 1.0911766993921868, 0.34293527012966724, -0.6952142526108798, -0.3049629363107213, -0.31022042544128986, -0.3234122924955169, -0.720999480083071, 0.20399414275443434, -0.6865062618245117, -0.16997031039848695, 0.3130381936349981, 1.0720416690765444], [0.8829847299294606, -0.4878056901678248, -0.09131676637761289]]